svm_type c_svc
kernel_type linear
nr_class 2
total_sv 2697
rho 0.225701
label 1 -1
probA -1.68848
probB 1.08688
nr_sv 653 2044
SV
2.005942396908207 0:1 7489:1 12388:1 
0.3061708662981344 7019:1 7301:1 7389:1 8612:1 19477:1 
4 451:1 592:1 2330:1 3287:1 3696:1 8419:1 10094:1 11327:1 11561:1 14772:1 17034:1 18556:1 19357:1 19477:1 
0.1074392164471981 0:1 188:1 2077:1 2442:1 2605:1 4899:1 5129:1 6708:1 7801:1 8419:1 9365:1 10188:1 10837:1 11202:1 11327:1 11531:1 14466:1 15746:1 17426:1 17607:1 18450:1 18955:1 
0.2080286241342519 592:1 3532:1 9095:1 9115:1 10058:1 14731:1 17084:1 17426:1 17668:1 
1.523465762978952 361:1 1398:1 1464:1 2354:1 4194:1 5033:1 5066:1 7868:1 8465:1 9115:1 10838:1 11561:1 11580:1 14472:1 19026:1 19355:1 19477:1 
2.69775986948719 1591:1 7891:1 7892:1 8099:1 8612:1 9365:1 9792:1 11202:1 15446:1 
2.500867588533144 900:1 1398:1 7333:1 7801:1 8419:1 9115:1 17034:1 17350:1 17444:1 17607:1 18890:1 18901:1 
4 451:1 3123:1 6146:1 9365:1 14807:1 17151:1 17354:1 17389:1 19487:1 
0.3517303240118896 8419:1 11826:1 16037:1 16927:1 
4 1587:1 9115:1 15792:1 17155:1 17342:1 
0.1050693597167 41:1 2426:1 9115:1 14731:1 17551:1 19477:1 
1.011317858485139 0:1 7679:1 7868:1 7869:1 8419:1 8612:1 8636:1 9995:1 11580:1 17034:1 17354:1 19093:1 
1.554360921315533 6571:1 7868:1 8419:1 11202:1 11637:1 11731:1 11796:1 16453:1 17354:1 17658:1 19487:1 
4 1475:1 2354:1 5059:1 6472:1 6708:1 7868:1 8419:1 10567:1 11204:1 15896:1 17034:1 17607:1 18804:1 
1.418771004996298 592:1 643:1 1175:1 6708:1 8465:1 8612:1 9115:1 9248:1 10838:1 11580:1 12833:1 13588:1 
0.1669778653326646 333:1 1251:1 7755:1 7758:1 10271:1 16869:1 16949:1 17441:1 18893:1 19477:1 19487:1 
1.046402527038257 0:1 5918:1 7241:1 9115:1 10567:1 14731:1 17584:1 
0.1970034879391839 1398:1 6338:1 6708:1 8612:1 9115:1 9365:1 9754:1 11009:1 11327:1 11881:1 13848:1 17354:1 17607:1 18346:1 19477:1 
0.7655238593484649 5016:1 7301:1 8140:1 8612:1 9115:1 19089:1 
1.222367330899343 4194:1 5276:1 9365:1 13754:1 16495:1 19155:1 19477:1 
0.3218632719205555 451:1 1398:1 3287:1 6708:1 7868:1 8003:1 8419:1 8465:1 9995:1 11426:1 17607:1 18804:1 19477:1 
1.284688115069067 809:1 9660:1 10058:1 17034:1 17389:1 17404:1 17441:1 17668:1 18610:1 19295:1 
0.833042624652085 679:1 1499:1 6923:1 7891:1 9365:1 10567:1 12786:1 18878:1 19268:1 
1.803800874950448 451:1 7185:1 11028:1 11327:1 17607:1 19310:1 19477:1 
0.2099820718834173 41:1 3845:1 5017:1 8849:1 9115:1 11096:1 11202:1 11731:1 13848:1 15896:1 17034:1 17408:1 18890:1 19076:1 19477:1 
0.6152862257569168 1620:1 6146:1 6315:1 7185:1 7333:1 8998:1 9095:1 9115:1 11202:1 14731:1 17350:1 17607:1 
0.8826732477692082 451:1 8612:1 9115:1 10271:1 14731:1 16869:1 17354:1 18946:1 
0.5358275015648626 1499:1 6923:1 7384:1 8419:1 9365:1 11229:1 
4 6805:1 7654:1 7679:1 8419:1 10567:1 11796:1 19026:1 
0.68524601570952 1251:1 7113:1 8114:1 10567:1 16495:1 19258:1 19487:1 
1.27124727651353 0:1 592:1 2734:1 7191:1 7868:1 7892:1 11580:1 11731:1 17069:1 19477:1 
4 1175:1 7185:1 9115:1 11580:1 11731:1 17607:1 17670:1 18401:1 18444:1 
4 592:1 4256:1 6355:1 9095:1 9115:1 9901:1 11580:1 13848:1 15896:1 18890:1 
1.515446666882767 451:1 6079:1 7891:1 9365:1 10567:1 12012:1 
3.89439776049531 0:1 333:1 1201:1 2330:1 7352:1 7679:1 9115:1 17151:1 17153:1 
2.131913013284434 451:1 1398:1 6049:1 8419:1 9115:1 10359:1 11426:1 11796:1 12404:1 13502:1 15896:1 17034:1 17607:1 18901:1 
4 4999:1 8003:1 9115:1 9824:1 11561:1 14472:1 14731:1 
2.097639074614692 5381:1 7188:1 11732:1 13848:1 15337:1 19442:1 
4 3833:1 4722:1 8419:1 11967:1 14877:1 17081:1 17350:1 19477:1 
0.1704645665754969 342:1 592:1 9115:1 10537:1 11762:1 15434:1 17973:1 18401:1 18955:1 
4 4723:1 5899:1 8419:1 8612:1 9547:1 16037:1 17034:1 17376:1 19034:1 19477:1 
2.265235824930351 1954:1 8419:1 9115:1 9901:1 18950:1 
2.213751261415158 809:1 1619:1 6923:1 9660:1 11132:1 11802:1 15896:1 17342:1 17354:1 17387:1 17551:1 
0.3083501207868361 451:1 592:1 999:1 1201:1 2354:1 5379:1 6048:1 8419:1 9115:1 11132:1 13169:1 13649:1 17034:1 17342:1 17350:1 18890:1 18901:1 19032:1 
2.983366702583186 679:1 4999:1 7868:1 8419:1 8612:1 11202:1 11637:1 17227:1 
3.576962371254991 0:1 682:1 1398:1 2317:1 2330:1 9115:1 11531:1 14731:1 17376:1 17607:1 18450:1 
4 4198:1 7333:1 8612:1 9115:1 11531:1 14731:1 
0.2714848769038628 2330:1 4474:1 5059:1 6712:1 8612:1 9115:1 14731:1 15723:1 17034:1 17973:1 
4 1251:1 6336:1 7737:1 8302:1 8419:1 8612:1 9901:1 11202:1 17354:1 
1.3766174151147 1133:1 5059:1 6923:1 7185:1 7703:1 8419:1 8465:1 8612:1 9115:1 10567:1 15836:1 16939:1 17034:1 17350:1 17405:1 19195:1 19477:1 
4 809:1 4999:1 9983:1 15991:1 16855:1 17350:1 17607:1 19057:1 19258:1 19477:1 
4 6954:1 11967:1 13500:1 17354:1 
4 188:1 1175:1 6924:1 7241:1 8612:1 9115:1 10567:1 11469:1 17354:1 17607:1 18804:1 
0.9381180996902986 567:1 4999:1 6120:1 7035:1 7868:1 16587:1 19477:1 
3.824376857225038 2442:1 7185:1 7892:1 8419:1 8612:1 9365:1 11028:1 11096:1 11202:1 11469:1 15896:1 17342:1 17354:1 17607:1 18804:1 18855:1 
2.925156111680492 6458:1 7868:1 8419:1 8890:1 9995:1 11204:1 12750:1 17607:1 19258:1 
3.246937546765991 900:1 2426:1 3833:1 6272:1 7918:1 8419:1 11202:1 11239:1 14877:1 15896:1 19026:1 19477:1 
0.2561857446728955 5129:1 6355:1 9115:1 9901:1 11202:1 15740:1 17478:1 18890:1 
1.151457067547862 592:1 679:1 2442:1 7185:1 11383:1 15774:1 16735:1 17362:1 17389:1 19195:1 19477:1 
0.8389164612644097 5129:1 7333:1 8419:1 8465:1 10088:1 10188:1 10567:1 13813:1 14881:1 16738:1 17366:1 19258:1 19477:1 
0.8506768621129973 7868:1 8141:1 8419:1 17464:1 
0.9922818638036968 687:1 4265:1 8419:1 9365:1 10188:1 11531:1 16740:1 18401:1 
0.3988776743065603 900:1 1175:1 1616:1 3833:1 4297:1 5066:1 7185:1 8612:1 11202:1 11469:1 17034:1 17362:1 17389:1 17551:1 19035:1 19258:1 19477:1 
1.644223511642941 809:1 16449:1 19466:1 19477:1 
0.5893789458825957 2442:1 7185:1 8384:1 9115:1 11967:1 15896:1 16350:1 18955:1 19099:1 
3.868537928258747 0:1 592:1 6708:1 7107:1 7679:1 7997:1 8419:1 9115:1 11202:1 14563:1 15337:1 15613:1 15896:1 17607:1 18857:1 19093:1 
1.777792881815511 3301:1 6708:1 8849:1 9547:1 9829:1 10567:1 17348:1 19034:1 19477:1 
0.69726316407676 1175:1 1531:1 6923:1 7868:1 8612:1 9095:1 9115:1 9476:1 11731:1 11833:1 15720:1 15896:1 17354:1 17607:1 19477:1 
1.545210887213331 0:1 1398:1 1616:1 7891:1 9983:1 10536:1 13848:1 14643:1 14731:1 17426:1 
1.614009082061804 5059:1 6708:1 7328:1 8419:1 8465:1 9115:1 10058:1 15704:1 17034:1 17607:1 17668:1 17716:1 
1.646644782713229 7892:1 8419:1 9095:1 9901:1 10907:1 19081:1 19487:1 
4 6341:1 8612:1 11096:1 11202:1 17426:1 19019:1 
0.989015788044422 7551:1 8612:1 9095:1 16636:1 17350:1 17376:1 19057:1 
0.4391428654624736 5072:1 8419:1 8612:1 9901:1 11096:1 11202:1 16274:1 17350:1 17406:1 
2.056854004116429 592:1 1398:1 7333:1 8267:1 9115:1 13848:1 14731:1 17534:1 17607:1 
2.016853317095892 5721:1 6708:1 9095:1 9115:1 19163:1 19477:1 
1.295009092059982 3290:1 4297:1 5909:1 7891:1 8849:1 9115:1 10276:1 11202:1 17551:1 
3.293659619984864 6529:1 8053:1 8612:1 9115:1 10217:1 19477:1 
0.7363181797934566 7832:1 9095:1 9115:1 10467:1 11028:1 12387:1 13015:1 17354:1 
1.987298650787079 1398:1 7868:1 8419:1 17389:1 17408:1 17607:1 19367:1 19442:1 
1.645090960911457 0:1 5916:1 6336:1 7832:1 9115:1 11798:1 15146:1 17426:1 17572:1 18610:1 19195:1 19258:1 19477:1 
0.2342784177192332 8419:1 9901:1 10811:1 11768:1 14731:1 17350:1 17534:1 
0.3307672711712175 480:1 592:1 5719:1 7357:1 9115:1 11202:1 11731:1 11757:1 12564:1 14731:1 15633:1 17350:1 17354:1 19015:1 
0.02348935940733284 0:1 2442:1 7185:1 8419:1 10188:1 11789:1 15896:1 17737:1 19045:1 
0.4400771878059557 372:1 2897:1 5129:1 5192:1 9130:1 11202:1 
0.937014750506509 513:1 1619:1 8419:1 9095:1 9115:1 10567:1 11531:1 17342:1 
4 1847:1 5059:1 8419:1 8612:1 11202:1 13588:1 17034:1 17350:1 17607:1 18855:1 
0.7746919337883662 8419:1 9115:1 14731:1 17342:1 17396:1 17444:1 
0.814847478527942 0:1 2442:1 5129:1 5338:1 6461:1 7301:1 7389:1 8612:1 9365:1 14731:1 15987:1 16442:1 17034:1 17354:1 18955:1 
2.834159750338983 7301:1 8612:1 9115:1 17034:1 19295:1 
1.822841510514408 9115:1 14731:1 16624:1 19057:1 
4 1398:1 3301:1 6272:1 7868:1 13848:1 16348:1 17389:1 17607:1 18955:1 19076:1 
0.6351791461170834 2330:1 5059:1 6336:1 8141:1 8419:1 8612:1 9115:1 9547:1 11580:1 13588:1 17034:1 17354:1 17607:1 19081:1 
0.1258378835434758 480:1 6347:1 6923:1 7801:1 10301:1 15337:1 15896:1 17350:1 17405:1 19432:1 
4 1201:1 7352:1 7758:1 7892:1 14731:1 15337:1 17354:1 19258:1 
0.2406925631440299 2330:1 2766:1 5757:1 6924:1 6985:1 7868:1 8419:1 9095:1 9115:1 11028:1 11469:1 11798:1 12306:1 13079:1 13857:1 14731:1 17350:1 17354:1 17607:1 18449:1 18457:1 19477:1 
0.7547878845061325 2330:1 8321:1 8419:1 9115:1 10074:1 11731:1 11810:1 14874:1 17354:1 17572:1 
2.855947259829387 0:1 6708:1 7891:1 10058:1 10301:1 15773:1 16734:1 17083:1 17551:1 
3.074821054688353 4999:1 8419:1 13588:1 17426:1 19081:1 
4 5059:1 8612:1 9115:1 13588:1 17034:1 19466:1 
0.8538223884433808 1398:1 4999:1 6273:1 9115:1 9824:1 11884:1 14731:1 19195:1 
1.008515901057641 3907:1 6525:1 8029:1 8612:1 9115:1 10069:1 17354:1 
0.1488876273054689 1578:1 2330:1 8321:1 8419:1 9115:1 9995:1 10188:1 11531:1 14731:1 16869:1 
0.3929926426380941 5703:1 5906:1 7679:1 8419:1 8612:1 11058:1 11096:1 11202:1 14861:1 17350:1 17354:1 18556:1 18890:1 
3.195961196009216 7301:1 7997:1 8998:1 9115:1 13579:1 17376:1 18401:1 19477:1 
0.9308035205059769 809:1 7807:1 8385:1 11028:1 17354:1 17389:1 
1.913456603724359 1616:1 3287:1 5721:1 8302:1 9102:1 10811:1 17034:1 
4 511:1 592:1 4256:1 5129:1 5244:1 7301:1 8003:1 8419:1 9115:1 10188:1 14731:1 19076:1 
1.78671530868707 2330:1 4999:1 5129:1 7301:1 8419:1 9365:1 10271:1 10567:1 11953:1 15995:1 17389:1 17406:1 18459:1 
2.680141261056766 6461:1 7185:1 11138:1 11202:1 11731:1 11967:1 19487:1 
1.658081229212064 5906:1 7808:1 7868:1 8419:1 9095:1 11796:1 14847:1 17354:1 17405:1 17426:1 
1.87505342000925 1693:1 4999:1 8302:1 10359:1 11327:1 14731:1 19477:1 
0.5300091690186346 1398:1 2334:1 2442:1 3353:1 5658:1 6458:1 7348:1 9095:1 9115:1 11202:1 11383:1 14731:1 17034:1 17081:1 17350:1 17354:1 19442:1 
1.056088716389906 199:1 592:1 7737:1 8612:1 9766:1 13512:1 14472:1 15750:1 17366:1 19258:1 19487:1 
1.602217020353056 1587:1 8465:1 9115:1 9864:1 11732:1 17155:1 17354:1 17682:1 19477:1 
3.955901810668981 490:1 592:1 5389:1 9115:1 12760:1 16495:1 19258:1 
2.153125992565094 0:1 839:1 7244:1 17426:1 19333:1 19487:1 
0.05723302578729626 7801:1 9115:1 9944:1 11202:1 15896:1 16990:1 18890:1 19034:1 
1.774405285501318 480:1 2922:1 10217:1 10567:1 19477:1 
0.6917205306679564 5129:1 6240:1 6355:1 7301:1 8419:1 8612:1 9875:1 11202:1 11383:1 15991:1 17350:1 17478:1 18556:1 
4 333:1 2442:1 7188:1 9753:1 11732:1 15337:1 16000:1 17366:1 19477:1 
0.6932471219140383 1795:1 5059:1 6923:1 7917:1 8419:1 9547:1 13848:1 16735:1 17034:1 17389:1 19057:1 19477:1 
1.109081158110288 1999:1 5916:1 9095:1 11796:1 12048:1 17350:1 19442:1 
0.08154746178453051 592:1 5916:1 7891:1 8419:1 9547:1 9868:1 10276:1 19045:1 
0.2947120484946441 3287:1 6273:1 7301:1 7868:1 8189:1 8419:1 17607:1 
0.9239816049114676 5985:1 8419:1 9115:1 9365:1 9661:1 10060:1 18556:1 18890:1 19249:1 19355:1 
4 41:1 5968:1 8099:1 9095:1 10060:1 11469:1 13813:1 14807:1 15633:1 17354:1 17389:1 
4 0:1 999:1 6300:1 7868:1 9095:1 11202:1 11796:1 11798:1 16735:1 17362:1 17387:1 17551:1 17607:1 18946:1 
0.4765834123643964 1509:1 2442:1 8419:1 9115:1 14731:1 15896:1 17034:1 17571:1 
1.13319442896648 27:1 592:1 1398:1 1616:1 5381:1 7185:1 8078:1 8388:1 8419:1 8612:1 9095:1 11202:1 11967:1 13169:1 17607:1 18855:1 19026:1 
0.139416865617326 8140:1 8419:1 10188:1 11202:1 16569:1 17607:1 17975:1 
2.345804735653152 6157:1 7384:1 11796:1 15980:1 18556:1 19477:1 19487:1 
1.916152111278608 0:1 592:1 1251:1 5059:1 9115:1 9365:1 11732:1 12750:1 12833:1 14701:1 16442:1 17034:1 19258:1 19487:1 
0.3971041111909197 1123:1 6347:1 9115:1 11096:1 11202:1 11731:1 11967:1 
0.01026384674099594 480:1 5066:1 9410:1 13813:1 16605:1 18955:1 
0.3459661100177354 592:1 605:1 1847:1 8612:1 9365:1 14472:1 16738:1 17350:1 19487:1 
3.512624671024818 386:1 5059:1 6134:1 6954:1 7384:1 8302:1 8612:1 9547:1 10567:1 14472:1 17034:1 17354:1 17607:1 19057:1 19477:1 
0.9100613555944208 0:1 333:1 685:1 1175:1 1946:1 2442:1 5016:1 6473:1 7241:1 7868:1 8419:1 9115:1 14664:1 19195:1 19258:1 
0.4613889704502951 451:1 2628:1 8419:1 9115:1 11796:1 14731:1 15729:1 16740:1 18890:1 
1.027087073392673 685:1 1421:1 5016:1 5544:1 7191:1 7737:1 9477:1 11202:1 14731:1 17426:1 17579:1 18854:1 
0.5747220866096419 1591:1 2426:1 6194:1 7891:1 9792:1 11202:1 11469:1 14472:1 
0.206844101488742 592:1 2442:1 3287:1 5358:1 9365:1 9753:1 15301:1 16012:1 17034:1 19155:1 19477:1 
3.156797611683051 2471:1 7185:1 7301:1 7982:1 8419:1 8612:1 9115:1 10567:1 15093:1 17607:1 
0.1447081944141318 491:1 1961:1 2006:1 3287:1 7236:1 11796:1 17354:1 17682:1 
3.442734359400263 4722:1 8302:1 10867:1 15423:1 17350:1 19477:1 
0.8723365888354764 809:1 5358:1 6923:1 7758:1 11202:1 15735:1 16453:1 
0.7706916712276776 8242:1 10537:1 15434:1 15991:1 17973:1 18955:1 
2.480443376786032 567:1 1140:1 8419:1 8612:1 10188:1 12956:1 
3.02935299124728 1616:1 9095:1 11469:1 17350:1 17668:1 18946:1 
1.897448741212202 809:1 1251:1 7770:1 9365:1 17354:1 17376:1 
2.345389364168559 8612:1 9115:1 14731:1 17354:1 17405:1 19048:1 19336:1 
3.556511639226538 687:1 5016:1 6505:1 8385:1 8612:1 9115:1 9901:1 11132:1 11202:1 11531:1 11881:1 14472:1 14731:1 15896:1 17551:1 19155:1 
0.9819481804398581 809:1 6708:1 9799:1 10567:1 11561:1 12430:1 14472:1 17354:1 19363:1 19477:1 
0.09158503722825415 0:1 2154:1 2330:1 4219:1 7352:1 8267:1 8385:1 8419:1 9115:1 10266:1 16942:1 17350:1 18890:1 
4 2405:1 8419:1 11757:1 17682:1 
3.429741961284657 1270:1 6273:1 8387:1 9115:1 11028:1 17354:1 19477:1 
4 1398:1 4194:1 6157:1 10114:1 11796:1 15623:1 17607:1 18955:1 19487:1 
1.868789217694103 333:1 342:1 451:1 592:1 1398:1 2330:1 4722:1 4723:1 4999:1 5386:1 5899:1 7679:1 7801:1 7891:1 8419:1 9115:1 9365:1 9901:1 15094:1 15896:1 17034:1 17350:1 17607:1 18890:1 19057:1 19355:1 
3.129614588394126 2442:1 4999:1 6469:1 7891:1 8099:1 10230:1 17406:1 19258:1 
0.9015651049581529 0:1 592:1 4165:1 7241:1 7892:1 8581:1 9095:1 9115:1 10095:1 10271:1 11731:1 16869:1 17607:1 19477:1 19487:1 
3.154335655323665 41:1 592:1 1175:1 5059:1 8612:1 9115:1 9365:1 11731:1 13588:1 17034:1 17354:1 17408:1 17478:1 19487:1 
1.314006293417719 1509:1 2442:1 4297:1 5909:1 6080:1 8321:1 8419:1 9365:1 11580:1 17034:1 17350:1 17405:1 17555:1 17607:1 
0.0778674882365407 9115:1 11132:1 14494:1 16636:1 17668:1 19079:1 19442:1 19477:1 
2.478284676385295 0:1 2060:1 2442:1 7758:1 8385:1 11202:1 17081:1 18955:1 
0.2581016283210043 1587:1 4264:1 5129:1 6923:1 9115:1 10567:1 14731:1 17081:1 19047:1 19081:1 
0.1553239391320403 375:1 451:1 6157:1 9115:1 11202:1 12012:1 14731:1 
0.2942449685459413 592:1 2442:1 4530:1 5129:1 6336:1 6503:1 7737:1 7801:1 8465:1 9095:1 11561:1 14701:1 15085:1 15502:1 17354:1 17426:1 19310:1 19477:1 19487:1 
0.5599906400192842 679:1 2060:1 6203:1 7807:1 8465:1 9115:1 11202:1 17227:1 17426:1 19034:1 19355:1 
4 5059:1 8419:1 9115:1 9547:1 13588:1 17034:1 17607:1 19081:1 
3.375872331047628 592:1 1133:1 3290:1 7328:1 7891:1 9115:1 9365:1 11796:1 15616:1 17545:1 
0.3232911256792412 4999:1 6206:1 8419:1 9115:1 9547:1 10188:1 14472:1 19477:1 
2.805809750404665 490:1 5059:1 5389:1 8302:1 9547:1 11327:1 11967:1 15580:1 17034:1 17426:1 17607:1 18955:1 19477:1 
3.139123843422637 7640:1 11383:1 14731:1 17350:1 19324:1 
0.7448670617122763 6523:1 10811:1 17034:1 18083:1 19295:1 
0.1453712318449684 1228:1 4999:1 5389:1 6505:1 8302:1 13515:1 15041:1 15087:1 17362:1 19258:1 19477:1 
0.5266969606328004 592:1 5554:1 8419:1 9365:1 11469:1 11796:1 16735:1 16926:1 
1.107258774100913 567:1 687:1 999:1 6065:1 6523:1 8419:1 8465:1 8998:1 9095:1 10188:1 10278:1 14731:1 15773:1 16071:1 17376:1 17406:1 
2.259325594359247 490:1 1398:1 2442:1 6336:1 7348:1 7352:1 8419:1 9095:1 9115:1 17426:1 
0.7393193104256538 2442:1 6336:1 8419:1 9115:1 14731:1 15472:1 
0.525801224490289 592:1 1175:1 1879:1 5059:1 6708:1 8612:1 9115:1 9154:1 9824:1 10567:1 11426:1 11731:1 12158:1 12760:1 13588:1 14318:1 15085:1 17034:1 17354:1 19258:1 19477:1 19487:1 
1.341919402325073 0:1 592:1 7801:1 8419:1 8612:1 9115:1 9666:1 10058:1 10572:1 11435:1 11580:1 14656:1 18890:1 
1.462305838837771 2317:1 9901:1 10074:1 15987:1 17350:1 17910:1 
3.164490773885091 1398:1 1509:1 1619:1 2471:1 4194:1 7891:1 8302:1 8419:1 9095:1 15773:1 17444:1 
2.579540750773469 1795:1 5359:1 7333:1 8419:1 10001:1 11531:1 17239:1 17607:1 17668:1 18890:1 19477:1 19487:1 
0.755587135303315 7384:1 8419:1 9365:1 11202:1 11826:1 16637:1 17074:1 17408:1 
4 3833:1 4999:1 6708:1 8285:1 8419:1 17426:1 
4 2330:1 2442:1 5059:1 6336:1 8419:1 9095:1 9115:1 9547:1 17034:1 19129:1 
2.543817864500807 592:1 2426:1 7679:1 7891:1 9365:1 11096:1 11830:1 17366:1 17607:1 19477:1 19487:1 
2.743489472509387 2442:1 7185:1 7737:1 7891:1 8099:1 8612:1 9095:1 9115:1 11132:1 15283:1 17034:1 17668:1 
0.3575355652655973 0:1 592:1 7333:1 8419:1 9115:1 9365:1 9432:1 9901:1 11768:1 14731:1 16927:1 17443:1 17934:1 
0.5342054981688616 6449:1 8612:1 9115:1 14731:1 19463:1 
4 7312:1 9095:1 9115:1 10058:1 15896:1 19155:1 
1.602940875003116 999:1 2426:1 8029:1 14807:1 17354:1 17551:1 18955:1 
4 1616:1 6708:1 9130:1 10567:1 17607:1 17668:1 19258:1 19324:1 
0.1644343487538124 6923:1 8419:1 10188:1 11034:1 16453:1 17426:1 19045:1 
4 5059:1 7241:1 8302:1 8419:1 9547:1 11796:1 17034:1 17607:1 18015:1 18401:1 19477:1 
0.6053425432316637 1240:1 2442:1 6455:1 8003:1 8029:1 8419:1 9095:1 11798:1 11810:1 11953:1 17034:1 17354:1 17376:1 
4 999:1 7352:1 8419:1 10188:1 11883:1 19463:1 
0.3518953598558557 333:1 592:1 1201:1 2330:1 4722:1 7891:1 8385:1 8387:1 8419:1 8465:1 9115:1 11561:1 11810:1 12107:1 15896:1 16697:1 17193:1 17354:1 17366:1 17716:1 19076:1 
3.319911628389826 5906:1 9095:1 10061:1 13251:1 17354:1 17426:1 
1.371066554611835 342:1 7185:1 7982:1 9115:1 10567:1 11967:1 14731:1 16624:1 
0.8399203733257389 451:1 8612:1 15720:1 17354:1 18946:1 
3.306428017208428 592:1 3835:1 4999:1 7679:1 8419:1 10567:1 11797:1 15627:1 17034:1 17464:1 18827:1 19195:1 
0.9050592452050445 0:1 1797:1 4219:1 7352:1 8419:1 10188:1 
0.6032774728421172 809:1 3949:1 6300:1 6979:1 8119:1 8256:1 9095:1 11202:1 11731:1 17354:1 17441:1 17869:1 19116:1 19506:1 
0.7437192935264466 522:1 592:1 809:1 4774:1 5068:1 5734:1 6336:1 8419:1 10058:1 10114:1 11096:1 17354:1 17389:1 19076:1 19487:1 
4 4999:1 5749:1 7868:1 11426:1 11731:1 11796:1 16388:1 17354:1 17607:1 17682:1 18955:1 19477:1 
4 643:1 1201:1 2734:1 7241:1 7348:1 8419:1 10188:1 15896:1 17350:1 18890:1 19477:1 
1.046145509851488 5152:1 6615:1 9115:1 11796:1 14731:1 17354:1 
2.872177545652955 999:1 1619:1 5899:1 6505:1 7565:1 8465:1 9115:1 9365:1 9824:1 9995:1 10069:1 10758:1 19019:1 
0.1467064569195299 2297:1 3835:1 8419:1 11202:1 11789:1 15194:1 16926:1 17034:1 17350:1 17478:1 
1.287478575864165 511:1 1273:1 8419:1 10188:1 15991:1 
0.7842989938826147 1591:1 6336:1 8419:1 9095:1 9547:1 9792:1 9901:1 11202:1 13018:1 13848:1 15991:1 17376:1 19477:1 
1.032093763539274 0:1 569:1 9115:1 14731:1 19116:1 
0.3906645145161012 1433:1 2330:1 7352:1 9115:1 10567:1 11732:1 13169:1 14731:1 15896:1 16453:1 17395:1 18020:1 
1.082775751284281 8419:1 11798:1 17354:1 17397:1 18855:1 
3.796667281438855 9115:1 11531:1 14731:1 19331:1 
0.7690204987287885 809:1 1024:1 6461:1 11798:1 11881:1 17354:1 18058:1 18457:1 19477:1 
0.5046653464725175 592:1 3093:1 5675:1 5906:1 8419:1 9602:1 9751:1 11469:1 13283:1 14874:1 16912:1 17350:1 17354:1 17376:1 17405:1 17408:1 18890:1 19133:1 
2.538336125275982 3048:1 3287:1 4999:1 5899:1 7654:1 7801:1 8784:1 9102:1 11561:1 11580:1 11731:1 11796:1 15987:1 17034:1 17350:1 17354:1 
1.461055443622902 0:1 483:1 812:1 856:1 1973:1 2330:1 4722:1 4999:1 7248:1 7872:1 8419:1 8890:1 9115:1 9547:1 10095:1 11731:1 17034:1 17350:1 17607:1 17627:1 17670:1 18955:1 19477:1 
0.6566090936518253 7700:1 8140:1 9095:1 15896:1 17350:1 
4 1696:1 9901:1 11798:1 11881:1 17354:1 19116:1 19355:1 19477:1 
0.5488437927239911 809:1 7801:1 11561:1 14472:1 15896:1 19155:1 19477:1 
4 1251:1 8419:1 11469:1 15085:1 17607:1 18855:1 
1.650050402179632 592:1 8612:1 9365:1 15445:1 15487:1 17362:1 18401:1 
3.411037041666826 999:1 5059:1 7188:1 8419:1 8612:1 9901:1 11096:1 11132:1 11202:1 11797:1 17034:1 17668:1 19076:1 
4 4713:1 8419:1 10114:1 
2.384261816652347 3321:1 8419:1 9410:1 14877:1 16495:1 18372:1 
0.4784578593226809 3290:1 7891:1 8078:1 9218:1 17542:1 19477:1 
0.2928869276016911 1993:1 6347:1 9365:1 11202:1 11757:1 11967:1 16037:1 17350:1 
3.929621793518057 0:1 451:1 1696:1 7868:1 8419:1 8849:1 10301:1 10567:1 11731:1 17354:1 17551:1 
2.240642519803491 342:1 939:1 2330:1 2442:1 6336:1 7301:1 8419:1 11202:1 11881:1 17034:1 17403:1 17607:1 18855:1 
1.281216383251656 451:1 5379:1 5652:1 6338:1 7333:1 7897:1 8134:1 8419:1 8465:1 9130:1 9547:1 9888:1 11955:1 12012:1 12709:1 17354:1 17362:1 17389:1 17536:1 18401:1 19477:1 
0.8872988780507719 4137:1 4723:1 4999:1 8465:1 9115:1 14472:1 17034:1 17360:1 17625:1 19477:1 
1.874933205111308 1587:1 4722:1 5480:1 6505:1 7352:1 7384:1 8419:1 9115:1 9365:1 9410:1 17034:1 17366:1 17975:1 18901:1 19076:1 
3.142984665904028 451:1 592:1 6157:1 9095:1 9115:1 11202:1 11531:1 12012:1 18804:1 19155:1 19490:1 
2.727444092115846 4252:1 5072:1 11731:1 11967:1 17081:1 17350:1 17376:1 19477:1 
1.799037279822093 2442:1 4999:1 17096:1 17426:1 18955:1 19268:1 
2.817045146599779 8385:1 9095:1 9115:1 9901:1 16854:1 17350:1 17607:1 
1.67511346906418 0:1 900:1 1433:1 2426:1 3123:1 5652:1 6281:1 7891:1 9115:1 9365:1 10271:1 11967:1 13500:1 16011:1 17290:1 17354:1 17607:1 19355:1 
0.1796648361113264 592:1 4242:1 6157:1 6194:1 7241:1 7891:1 8612:1 9115:1 9365:1 9413:1 10567:1 11202:1 11531:1 14731:1 17034:1 17607:1 19295:1 
0.06109925631750738 8302:1 9115:1 9547:1 9983:1 12916:1 17350:1 17405:1 18401:1 18610:1 18890:1 19477:1 
0.1708635983594682 0:1 3301:1 5664:1 7333:1 9410:1 9901:1 11383:1 13719:1 13813:1 17350:1 17389:1 17607:1 
1.947567887768028 1433:1 4722:1 5017:1 7384:1 8029:1 8419:1 9365:1 10572:1 11732:1 17034:1 19477:1 
0.6243400454089134 451:1 679:1 4402:1 7868:1 8419:1 8465:1 9115:1 12012:1 13247:1 17487:1 18401:1 19032:1 19355:1 
0.206071033714439 1178:1 3287:1 17354:1 17666:1 18449:1 19076:1 19477:1 
0.5086029166728961 1616:1 7891:1 9115:1 10074:1 11561:1 11967:1 13169:1 14731:1 17082:1 
1.736854031992565 3287:1 7248:1 8419:1 10188:1 10217:1 10567:1 15896:1 19477:1 
1.331086498284985 4723:1 6472:1 9824:1 10567:1 17034:1 19477:1 
0.6480164427729657 643:1 6708:1 7489:1 7631:1 9095:1 9115:1 11798:1 13644:1 13813:1 13832:1 14731:1 17366:1 17426:1 19477:1 
0.7041962802933591 0:1 8419:1 9130:1 9983:1 10188:1 11531:1 13644:1 16866:1 17350:1 18459:1 
0.6038240594179967 7997:1 8302:1 10069:1 11096:1 11836:1 19163:1 19442:1 
2.373757732613737 41:1 592:1 3287:1 8419:1 9365:1 9543:1 17366:1 17607:1 18890:1 19477:1 
0.107729289629556 1178:1 5082:1 6924:1 7868:1 9095:1 9995:1 11202:1 11531:1 17354:1 17607:1 18449:1 19331:1 19477:1 
2.84315805255642 1398:1 6472:1 8419:1 9901:1 10271:1 11731:1 11796:1 16869:1 17354:1 17607:1 17682:1 19324:1 19477:1 
0.1113018061113671 1433:1 1681:1 5059:1 8419:1 9115:1 11469:1 11767:1 11810:1 14731:1 16735:1 17034:1 
0.5903300417764562 0:1 1616:1 2442:1 5059:1 7751:1 8419:1 11798:1 17034:1 17712:1 19345:1 
4 8384:1 18401:1 
0.05270152361785373 679:1 1795:1 2442:1 6273:1 6292:1 8419:1 9115:1 10271:1 11202:1 11531:1 14731:1 17034:1 17405:1 17426:1 
0.4383338501434839 0:1 480:1 1616:1 4724:1 5721:1 7679:1 8140:1 8419:1 13251:1 17354:1 17408:1 18890:1 18955:1 
0.6370011819485925 0:1 1503:1 5193:1 8419:1 9115:1 9413:1 11385:1 11798:1 11830:1 12904:1 18401:1 19076:1 
0.9651349717653144 1541:1 1591:1 2442:1 4228:1 9792:1 10567:1 10996:1 11202:1 14731:1 17034:1 17376:1 19076:1 19477:1 
1.543484154837937 0:1 592:1 7868:1 8612:1 10271:1 11967:1 13648:1 17426:1 17607:1 18955:1 
1.954363409606391 1587:1 1961:1 8419:1 10188:1 11796:1 
0.2153897698821291 4875:1 5906:1 7649:1 8246:1 8419:1 8612:1 9115:1 9365:1 9432:1 11058:1 11096:1 11202:1 11967:1 13247:1 13588:1 17354:1 17405:1 18890:1 
0.5263085450975077 4217:1 6347:1 9115:1 11967:1 
0.1822399437628341 0:1 27:1 1398:1 2330:1 6523:1 7185:1 9095:1 9115:1 10536:1 13848:1 16070:1 17534:1 17607:1 19477:1 
1.778046251321708 7185:1 9902:1 11796:1 15941:1 16735:1 17362:1 17389:1 17607:1 18372:1 
0.6591420305032378 5129:1 5208:1 9115:1 9770:1 11202:1 14731:1 
0.3544268892658461 1801:1 6923:1 8003:1 9115:1 9901:1 16056:1 16348:1 16740:1 18401:1 19487:1 
1.168882754199251 0:1 7868:1 8419:1 8636:1 9116:1 9995:1 11580:1 
0.7903537024760584 0:1 999:1 1616:1 2330:1 5379:1 6455:1 6923:1 7384:1 8419:1 8465:1 9095:1 9115:1 9983:1 13848:1 14731:1 15502:1 17354:1 19477:1 
0.2168822754859299 7185:1 7737:1 8419:1 10188:1 11202:1 11732:1 17350:1 17579:1 17607:1 17668:1 19258:1 
1.225396075332768 18059:1 
1.830604905091993 2516:1 5059:1 6458:1 8419:1 8465:1 11967:1 13500:1 15085:1 17034:1 
0.9118768817007112 809:1 2735:1 7191:1 7892:1 11202:1 11580:1 11731:1 17555:1 19057:1 
0.4783344586993841 592:1 6449:1 8612:1 9095:1 9115:1 11469:1 11757:1 11967:1 15733:1 18890:1 19081:1 
4 0:1 3287:1 4305:1 7232:1 10301:1 11798:1 11967:1 16518:1 18058:1 18966:1 19195:1 
0.6713568864525388 3290:1 9115:1 11967:1 14994:1 16636:1 17354:1 18077:1 18083:1 19076:1 
0.9924400224097274 592:1 3291:1 7489:1 8612:1 10567:1 12776:1 14562:1 15272:1 19487:1 
0.06777586353213982 592:1 1433:1 5389:1 5721:1 8419:1 9115:1 9130:1 9335:1 9864:1 9901:1 10058:1 11797:1 12717:1 17607:1 19477:1 
4 522:1 1398:1 2442:1 6455:1 8134:1 8419:1 8465:1 9115:1 11796:1 17426:1 19195:1 
0.4289978540188304 0:1 8419:1 8636:1 10567:1 11327:1 11580:1 11731:1 12611:1 14151:1 17350:1 19310:1 
3.227804479137749 592:1 1398:1 6276:1 9115:1 10058:1 11334:1 17607:1 
0.3744794996742861 592:1 1251:1 7412:1 7758:1 9432:1 11731:1 11963:1 11967:1 15736:1 15980:1 17389:1 18955:1 19034:1 
4 7312:1 8419:1 10114:1 11202:1 11731:1 11757:1 17151:1 17354:1 17426:1 
2.564015048721232 451:1 6157:1 7384:1 7489:1 8419:1 9115:1 11132:1 11202:1 11731:1 12012:1 15896:1 17376:1 19034:1 
2.734573274222678 474:1 5082:1 8612:1 11531:1 11967:1 17354:1 19032:1 19477:1 
1.108213619163027 592:1 1795:1 9365:1 14105:1 
4 2442:1 4999:1 6708:1 10567:1 11580:1 19477:1 
3.470220992380787 924:1 4999:1 7248:1 7352:1 8419:1 9824:1 10188:1 11580:1 14731:1 15896:1 17350:1 18610:1 19477:1 
0.6595501366191467 451:1 592:1 8419:1 9115:1 10567:1 11096:1 11202:1 11731:1 11967:1 12012:1 16229:1 17670:1 
1.676308965079247 2330:1 8387:1 8419:1 9115:1 9901:1 19076:1 19442:1 
3.780876381968611 809:1 7333:1 12904:1 17607:1 18401:1 19076:1 19477:1 
0.9437009404017281 0:1 1616:1 5019:1 13848:1 14731:1 17350:1 19363:1 
0.0937825432038828 1475:1 9115:1 11967:1 15406:1 17081:1 19477:1 
2.672010907787834 0:1 551:1 567:1 6756:1 7868:1 9115:1 9901:1 10074:1 11731:1 12404:1 15980:1 17466:1 17607:1 18226:1 18444:1 18955:1 19195:1 
3.795096841790586 900:1 5066:1 5480:1 7185:1 8419:1 9115:1 9263:1 10058:1 11469:1 14731:1 17081:1 17354:1 18946:1 
4 5059:1 7565:1 7790:1 8465:1 17034:1 17389:1 19057:1 
4 592:1 1571:1 6708:1 8218:1 8612:1 9115:1 9365:1 13588:1 17354:1 
1.385650858514629 0:1 2006:1 5761:1 7489:1 11757:1 17350:1 18890:1 
0.1466298588402494 188:1 592:1 1398:1 2442:1 4999:1 5059:1 8419:1 9115:1 9995:1 11561:1 12111:1 13644:1 14472:1 17034:1 19345:1 19477:1 
3.328210475086961 1398:1 1587:1 2330:1 3833:1 6985:1 9115:1 11028:1 11796:1 11798:1 12404:1 16453:1 19258:1 19355:1 
0.09979760530966597 0:1 7653:1 7679:1 8321:1 10001:1 17350:1 
3.969411479282429 999:1 1433:1 3287:1 7191:1 8419:1 9547:1 9824:1 10567:1 11732:1 13813:1 14807:1 17354:1 17551:1 17607:1 18855:1 19076:1 19477:1 
0.8177362880040137 451:1 1464:1 4297:1 7832:1 10567:1 12838:1 17405:1 17426:1 
1.772491766005243 0:1 679:1 1398:1 6463:1 7352:1 7795:1 7982:1 8465:1 9271:1 11327:1 11731:1 17607:1 19355:1 19477:1 
0.122585692785763 0:1 9095:1 10058:1 11798:1 19282:1 19490:1 
1.038731627627759 0:1 1587:1 1999:1 3287:1 7352:1 7868:1 8849:1 11402:1 13864:1 17354:1 17551:1 19477:1 
4 687:1 1251:1 8419:1 10114:1 19258:1 
0.6603520888437653 41:1 5918:1 7312:1 9365:1 9901:1 10217:1 10567:1 11202:1 11413:1 11757:1 11967:1 16184:1 17350:1 19477:1 
2.222827208856105 4722:1 6019:1 8302:1 10069:1 10359:1 11731:1 17081:1 17441:1 19477:1 
2.971580889951322 2330:1 8419:1 11517:1 17464:1 18449:1 18855:1 19026:1 19060:1 19477:1 
2.955362856176321 2003:1 10567:1 11202:1 11796:1 15991:1 16275:1 
0.3900770473783582 1433:1 2442:1 5721:1 5798:1 6431:1 8257:1 9102:1 10058:1 11963:1 17034:1 18401:1 18955:1 
0.1772478331251357 0:1 181:1 551:1 592:1 778:1 1398:1 2354:1 3476:1 4438:1 5899:1 5918:1 6473:1 6923:1 7191:1 7801:1 7832:1 8108:1 8321:1 9948:1 9995:1 10537:1 10753:1 10872:1 11306:1 11580:1 11731:1 11797:1 13003:1 15124:1 15813:1 15896:1 16700:1 16965:1 17354:1 17376:1 17650:1 19116:1 19119:1 19324:1 
0.7530981739299968 592:1 1398:1 5480:1 8419:1 9995:1 11204:1 11881:1 11967:1 13652:1 16233:1 17366:1 19477:1 
4 0:1 567:1 592:1 2330:1 2426:1 6708:1 7703:1 7891:1 8281:1 9901:1 11810:1 14647:1 16453:1 17617:1 
0.5803038295175679 0:1 592:1 809:1 1587:1 2442:1 4999:1 5347:1 5838:1 6302:1 6861:1 7241:1 7301:1 7654:1 7868:1 8419:1 8465:1 9901:1 10188:1 10729:1 11202:1 11541:1 11731:1 13813:1 14459:1 16869:1 17350:1 17607:1 18854:1 18855:1 19477:1 
0.8034778481482987 1398:1 1536:1 5059:1 7684:1 9995:1 11881:1 12012:1 14996:1 17034:1 19477:1 
4 2442:1 6455:1 8140:1 8419:1 17034:1 17354:1 
0.03353003935636034 605:1 7185:1 8419:1 9115:1 9333:1 9365:1 10188:1 11028:1 14472:1 15896:1 17607:1 17975:1 
0.5306013570205246 5379:1 6273:1 7737:1 9115:1 14731:1 17607:1 18449:1 19487:1 
3.488719528002028 5059:1 7241:1 8419:1 8465:1 9115:1 9995:1 10567:1 14982:1 17034:1 17607:1 19477:1 
0.6218775978243765 0:1 513:1 6525:1 7241:1 7301:1 8419:1 8465:1 8612:1 9115:1 9460:1 9995:1 11096:1 11202:1 19129:1 
1.355612082844315 592:1 7801:1 8587:1 9095:1 9115:1 10058:1 10271:1 15896:1 17607:1 18610:1 
2.617453089846307 0:1 900:1 5059:1 6057:1 6985:1 7801:1 9115:1 11731:1 17034:1 17408:1 
0.4331781450722971 592:1 856:1 1591:1 6336:1 6469:1 6518:1 7691:1 8419:1 9115:1 9365:1 11202:1 17354:1 17607:1 18855:1 19366:1 19428:1 
0.8416467762857349 592:1 928:1 1433:1 2330:1 3847:1 4722:1 5066:1 6347:1 7185:1 7333:1 7703:1 7891:1 8419:1 8465:1 9115:1 9365:1 9432:1 9660:1 10188:1 11328:1 11426:1 11531:1 12352:1 16869:1 17443:1 17482:1 17607:1 18946:1 19442:1 
1.423457664575552 592:1 5906:1 14766:1 16610:1 17342:1 17354:1 17930:1 19034:1 
1.363650417543749 0:1 2330:1 6391:1 7868:1 8108:1 9115:1 9130:1 10271:1 11797:1 15995:1 16388:1 16392:1 17376:1 17555:1 17607:1 18401:1 19477:1 
0.7350321284911938 0:1 687:1 3290:1 5937:1 11731:1 11967:1 14740:1 17155:1 17290:1 17350:1 
0.2217418183438888 7868:1 8465:1 9115:1 17034:1 18901:1 19045:1 19327:1 19357:1 
1.026954194252148 592:1 1345:1 4178:1 7301:1 7348:1 8419:1 10188:1 11204:1 11561:1 12750:1 17354:1 17607:1 19258:1 
0.7089484394819635 8419:1 9649:1 10285:1 11327:1 11768:1 12229:1 18058:1 
0.1681710200832064 451:1 1147:1 9130:1 10080:1 11561:1 
0.5125263674191475 809:1 3664:1 16869:1 17607:1 18327:1 18855:1 19477:1 
1.251037044316274 511:1 6203:1 7868:1 8078:1 8419:1 9115:1 17607:1 17668:1 19258:1 19442:1 
0.8378591074604576 0:1 451:1 1619:1 3833:1 5702:1 8465:1 9115:1 9365:1 9983:1 18955:1 19034:1 
0.6582840829214005 592:1 1556:1 2442:1 5129:1 7917:1 8419:1 8612:1 9115:1 10188:1 12012:1 12790:1 14731:1 15746:1 17034:1 19076:1 19477:1 
0.3759758145280451 0:1 592:1 1398:1 2442:1 9095:1 9115:1 9365:1 9901:1 10712:1 11967:1 17034:1 17426:1 19099:1 19477:1 
0.1249057971736551 3021:1 3301:1 6150:1 8508:1 11967:1 13500:1 14472:1 17354:1 19076:1 19155:1 19355:1 19477:1 
1.516069112521323 11796:1 13588:1 14665:1 15434:1 17389:1 17406:1 17441:1 
1.630431207812342 451:1 1464:1 4297:1 7312:1 10567:1 11230:1 18556:1 19477:1 
0.3471758379322678 1619:1 7997:1 8140:1 9095:1 9115:1 10811:1 17342:1 19307:1 19324:1 
0.09409268481723972 0:1 592:1 1135:1 1398:1 5033:1 5066:1 8612:1 9365:1 9410:1 9995:1 10837:1 11561:1 13813:1 18955:1 19057:1 19477:1 
0.4064938643426405 809:1 8321:1 11364:1 17387:1 
1.131113278506476 8612:1 11101:1 12243:1 16570:1 17360:1 
0.6782310286654041 939:1 2442:1 8385:1 9095:1 11202:1 12959:1 16353:1 16984:1 17426:1 17607:1 18955:1 
1.994096519813647 451:1 6469:1 8419:1 11202:1 16453:1 17354:1 17551:1 18449:1 
1.04646966538991 592:1 809:1 2330:1 7301:1 7807:1 8302:1 11731:1 11954:1 12012:1 12750:1 15085:1 15980:1 17342:1 17354:1 17362:1 19000:1 19258:1 19477:1 
0.00446417247105345 3287:1 5059:1 5108:1 8465:1 9115:1 11561:1 14731:1 17034:1 19477:1 
4 592:1 8465:1 8612:1 9115:1 10811:1 13588:1 15085:1 19335:1 
0.5288314251245625 3899:1 4495:1 7868:1 8419:1 11796:1 
0.1251183286956432 490:1 5129:1 7301:1 9365:1 17858:1 
0.7586432460847273 999:1 1135:1 1993:1 7868:1 8419:1 8612:1 8909:1 9095:1 11202:1 11797:1 12760:1 15896:1 17426:1 17464:1 
4 2330:1 9115:1 11967:1 15337:1 16184:1 19463:1 
2.34676836681293 0:1 41:1 2330:1 4722:1 5059:1 6461:1 7352:1 8419:1 9263:1 9547:1 11034:1 11202:1 13169:1 17034:1 17426:1 17677:1 19487:1 
1.517990276302099 809:1 7312:1 7654:1 10567:1 11796:1 18297:1 19477:1 
4 0:1 2060:1 6461:1 11202:1 11334:1 
2.596957407482669 5386:1 7801:1 8419:1 10188:1 11798:1 12771:1 13169:1 13813:1 17354:1 17607:1 19477:1 
0.3436366052263272 592:1 8267:1 9115:1 10058:1 16949:1 18890:1 
0.226899000994261 1175:1 7983:1 8612:1 9115:1 10567:1 13588:1 15337:1 17354:1 
1.610192280197538 2330:1 3301:1 8419:1 8612:1 9095:1 10188:1 11096:1 11202:1 11541:1 16740:1 
4 0:1 11798:1 13644:1 13813:1 19477:1 
0.1533430392237662 999:1 2330:1 7352:1 8419:1 10188:1 11531:1 11883:1 
4 9095:1 9660:1 10060:1 17342:1 17426:1 17551:1 
0.7149487804173819 0:1 1240:1 7755:1 9095:1 15652:1 17426:1 
0.9755303695602093 689:1 2330:1 3301:1 8419:1 9115:1 9529:1 10567:1 16887:1 18890:1 
4 7384:1 7795:1 8078:1 8419:1 8612:1 9365:1 17376:1 18890:1 
0.8935812851306904 592:1 8419:1 8669:1 9995:1 11202:1 12435:1 15746:1 16348:1 
4 1961:1 7185:1 11796:1 17354:1 
4 9115:1 13588:1 15434:1 18955:1 19081:1 
0.5436177452418866 0:1 2442:1 6455:1 8140:1 19085:1 19477:1 
1.548327408970008 4402:1 7301:1 19463:1 
4 0:1 6708:1 7737:1 8419:1 9263:1 9901:1 12480:1 13813:1 14472:1 16056:1 17350:1 17354:1 17408:1 19477:1 
1.925701438249026 1398:1 6505:1 6805:1 7348:1 7801:1 9095:1 9901:1 11767:1 12404:1 15896:1 16735:1 17426:1 17607:1 18610:1 19129:1 19258:1 19355:1 
4 4723:1 5129:1 7679:1 7868:1 8419:1 9547:1 15991:1 17034:1 17376:1 19477:1 
0.1428675828126919 522:1 1398:1 7312:1 7640:1 9095:1 11757:1 11758:1 17426:1 
4 513:1 1433:1 5017:1 5066:1 8419:1 9365:1 10572:1 17034:1 19487:1 
0.9390008955438988 592:1 999:1 1342:1 3455:1 6675:1 9115:1 11285:1 11731:1 11967:1 14667:1 14699:1 14731:1 15570:1 16348:1 17354:1 17607:1 18946:1 19487:1 
1.888276756637621 1398:1 6708:1 11469:1 11798:1 13832:1 14731:1 15050:1 17354:1 17376:1 18809:1 
0.6385531401250963 2330:1 5359:1 6529:1 7188:1 7489:1 8267:1 8419:1 8465:1 9095:1 9115:1 10838:1 11967:1 15995:1 17081:1 17668:1 18459:1 
4 0:1 4999:1 7672:1 8419:1 9115:1 9547:1 11383:1 14731:1 
3.613726959961342 342:1 451:1 592:1 856:1 2330:1 3287:1 4999:1 7868:1 8419:1 9365:1 9995:1 10271:1 10567:1 11731:1 13247:1 15616:1 17354:1 17607:1 17650:1 18909:1 19324:1 19477:1 
0.3384451573920749 451:1 682:1 2442:1 3182:1 8419:1 10188:1 11967:1 12750:1 17034:1 17426:1 19258:1 
4 2442:1 7891:1 9115:1 9410:1 17034:1 18401:1 
0.1778895475396355 6290:1 7185:1 8029:1 8419:1 17354:1 17682:1 
2.622922672191156 2330:1 8419:1 10188:1 11531:1 13401:1 18969:1 
1.704903179800673 2086:1 3301:1 7918:1 8302:1 8419:1 9529:1 14731:1 17350:1 19034:1 19477:1 
0.5093704541839468 1421:1 2330:1 2354:1 2924:1 8419:1 8612:1 9660:1 11096:1 11202:1 11580:1 13590:1 15613:1 16350:1 17366:1 18997:1 19442:1 
0.06317107231660862 451:1 1829:1 5129:1 5913:1 6473:1 7832:1 8419:1 11732:1 14662:1 17354:1 17426:1 17607:1 18855:1 19394:1 
0.4102946574335788 1433:1 5059:1 5129:1 7185:1 8419:1 9526:1 11202:1 11796:1 17034:1 17607:1 18855:1 
0.5842386893140061 392:1 592:1 5276:1 6157:1 8419:1 8998:1 9115:1 9630:1 11202:1 11796:1 15423:1 16267:1 17354:1 18401:1 
0.704736175025873 480:1 6157:1 7679:1 8419:1 8612:1 11202:1 17350:1 
0.3069117630721882 679:1 1696:1 4737:1 5017:1 11798:1 17034:1 17151:1 17354:1 17366:1 19116:1 
4 2334:1 9095:1 11202:1 13832:1 
0.8255727285724704 1398:1 5059:1 7158:1 11561:1 16525:1 17034:1 18854:1 19477:1 19491:1 
0.9669427247003806 592:1 1175:1 4305:1 6708:1 7010:1 7787:1 7832:1 8385:1 9115:1 9130:1 10127:1 10567:1 11202:1 11531:1 11580:1 17607:1 
0.8553782104498641 2330:1 4723:1 5721:1 5916:1 7489:1 10567:1 11883:1 13133:1 14854:1 17034:1 18890:1 19487:1 
1.734342279592987 0:1 3938:1 6700:1 7312:1 8419:1 10058:1 10188:1 11202:1 11757:1 
1.272631268449232 809:1 5033:1 7185:1 7333:1 11202:1 15346:1 17607:1 19045:1 19057:1 19477:1 
0.01178714129129215 0:1 41:1 856:1 1616:1 2330:1 5913:1 7301:1 7868:1 8465:1 9115:1 11798:1 12404:1 15434:1 15438:1 16442:1 17034:1 17243:1 17607:1 18855:1 19477:1 
3.655569457307879 1426:1 1571:1 1620:1 3175:1 5906:1 7868:1 9102:1 9115:1 11058:1 15097:1 17034:1 17354:1 19477:1 
0.8738181794782502 6505:1 8419:1 9867:1 9901:1 11732:1 17350:1 
0.7801120834463302 1433:1 3301:1 5072:1 8419:1 9792:1 10188:1 16233:1 19487:1 
1.279014348150809 6276:1 8419:1 9547:1 9901:1 11802:1 15414:1 17354:1 19402:1 19477:1 
0.7283668173992501 0:1 451:1 592:1 999:1 2330:1 6336:1 6505:1 7328:1 7809:1 8387:1 8612:1 9115:1 9817:1 10095:1 12109:1 14731:1 15050:1 17354:1 17417:1 17551:1 19477:1 
0.2225749752662771 592:1 1398:1 2330:1 5017:1 5386:1 6708:1 7832:1 7868:1 9115:1 10058:1 10567:1 12771:1 15085:1 17034:1 17607:1 
0.8522014758157526 0:1 900:1 1398:1 3301:1 7348:1 7352:1 8419:1 9115:1 9529:1 11096:1 11202:1 11731:1 11798:1 11967:1 17350:1 18890:1 
1.106237277833761 511:1 1433:1 8419:1 8612:1 11096:1 11202:1 11327:1 15991:1 
0.3567750403899787 451:1 5059:1 6157:1 7770:1 7868:1 8612:1 9115:1 9547:1 9901:1 14731:1 17034:1 17354:1 17387:1 17406:1 17551:1 17607:1 19057:1 19477:1 19487:1 
1.032231982276072 0:1 2058:1 2497:1 7384:1 8612:1 9832:1 10127:1 17354:1 18556:1 18955:1 
1.245746643222155 361:1 3835:1 4222:1 7868:1 11580:1 11967:1 13501:1 15053:1 17034:1 19477:1 
0.1603782247661807 6708:1 7301:1 8419:1 8612:1 9115:1 10188:1 16453:1 17607:1 18809:1 
0.7051767241606679 856:1 5129:1 7997:1 8612:1 10703:1 15477:1 16495:1 17376:1 
0.1979686583843031 0:1 333:1 592:1 1616:1 5899:1 7832:1 9115:1 9130:1 9649:1 10961:1 11580:1 11661:1 11920:1 13280:1 13416:1 14807:1 16453:1 17354:1 17395:1 18610:1 19449:1 
1.007522688248899 592:1 7352:1 8267:1 8612:1 9115:1 11096:1 11202:1 14731:1 15896:1 17155:1 18869:1 
3.379825187957165 2442:1 3287:1 5059:1 5389:1 7868:1 9365:1 17034:1 17607:1 19477:1 
0.5009203769324174 2713:1 3301:1 8419:1 10188:1 
2.938206712349036 4401:1 5913:1 7333:1 9095:1 15896:1 17617:1 19155:1 
2.378757746501649 2334:1 7185:1 11202:1 11731:1 11967:1 16495:1 
1.52366758689457 3:1 1175:1 8419:1 10188:1 11202:1 11796:1 
0.9863012054712073 3076:1 7679:1 8419:1 8612:1 11202:1 11308:1 17350:1 
1.138216987107197 809:1 4999:1 11531:1 12464:1 17350:1 17607:1 19477:1 
0.03457659938875115 592:1 9130:1 9365:1 11225:1 16281:1 17395:1 
0.7851118201189985 1175:1 3287:1 7333:1 8465:1 8612:1 9666:1 17354:1 17607:1 18431:1 
0.6833527422366124 2626:1 8032:1 8419:1 11327:1 15980:1 
1.901658558468068 809:1 1398:1 5721:1 6240:1 8612:1 9115:1 10758:1 11531:1 11796:1 13582:1 14731:1 17350:1 18016:1 19155:1 19477:1 
4 1795:1 8419:1 11402:1 18854:1 
0.5750283334677344 2442:1 8419:1 9115:1 12012:1 16569:1 17034:1 17354:1 17407:1 
4 679:1 7191:1 8419:1 10188:1 11531:1 14731:1 15896:1 17350:1 19155:1 
1.757406297677965 8419:1 9115:1 14146:1 14731:1 15418:1 17342:1 
3.238194318707512 0:1 809:1 1475:1 5033:1 5066:1 7868:1 8440:1 9115:1 10095:1 11561:1 11731:1 11881:1 13813:1 15434:1 15896:1 15980:1 19057:1 19477:1 
1.742458648917943 1433:1 2442:1 4040:1 5017:1 7892:1 7997:1 8612:1 9365:1 10572:1 11202:1 15337:1 16447:1 17034:1 17668:1 19477:1 
4 4803:1 9115:1 10271:1 11426:1 14731:1 15896:1 17354:1 17607:1 17661:1 
0.2510898512277475 592:1 856:1 3833:1 8612:1 9115:1 9247:1 12404:1 14683:1 16442:1 17029:1 17354:1 17362:1 17376:1 17406:1 19133:1 
1.31697115268761 4219:1 7534:1 8419:1 10094:1 11202:1 
0.9830427877303629 1587:1 1676:1 11531:1 11967:1 13500:1 19477:1 
0.3906166384904732 643:1 2442:1 5059:1 6523:1 6977:1 8419:1 8508:1 8612:1 9365:1 10567:1 11798:1 17034:1 17408:1 17668:1 
0.1293731722878826 7801:1 9095:1 16010:1 17426:1 
0.3239520587594623 451:1 592:1 2442:1 7301:1 7758:1 8157:1 13029:1 14472:1 19258:1 19477:1 19487:1 
0.9584007517216941 101:1 451:1 6208:1 8465:1 9753:1 11967:1 16636:1 17350:1 18399:1 19195:1 19477:1 19487:1 
4 5059:1 7185:1 8419:1 11732:1 17034:1 17239:1 17607:1 18372:1 19477:1 
1.100498730790553 0:1 41:1 592:1 636:1 679:1 1175:1 1201:1 1398:1 2330:1 6774:1 7333:1 7531:1 8385:1 8612:1 9095:1 9115:1 9365:1 9983:1 10276:1 10758:1 11484:1 11561:1 11797:1 11810:1 12107:1 14731:1 15438:1 17034:1 17354:1 17376:1 17405:1 17534:1 
0.8851268773764842 7301:1 7801:1 8157:1 11881:1 
2.033289612987849 1398:1 1619:1 8419:1 16855:1 17389:1 17444:1 17607:1 19034:1 
3.779401011300338 2083:1 2442:1 8419:1 8849:1 9115:1 9901:1 10567:1 11731:1 14731:1 17034:1 19268:1 19477:1 
1.508103192444775 451:1 7333:1 13813:1 17354:1 17661:1 18946:1 18955:1 19026:1 
1.224459888484404 41:1 567:1 1676:1 5129:1 6708:1 7185:1 7640:1 7997:1 8157:1 8281:1 8419:1 8508:1 11218:1 14662:1 17350:1 17366:1 18942:1 19076:1 19442:1 
1.241209295877622 0:1 939:1 2330:1 8419:1 9095:1 9115:1 9901:1 10095:1 11202:1 13848:1 16026:1 
1.078081155284611 592:1 1398:1 7243:1 13895:1 17354:1 17426:1 17551:1 17607:1 18860:1 19129:1 
1.702538330215654 451:1 592:1 4297:1 8217:1 11732:1 11796:1 
0.6416178438460352 0:1 1713:1 3860:1 5066:1 9547:1 10266:1 11541:1 19477:1 19507:1 
3.505617394751719 1445:1 3292:1 9095:1 19487:1 
2.743725385078579 592:1 1746:1 2330:1 6472:1 8387:1 8419:1 9115:1 9365:1 10188:1 15434:1 17408:1 18955:1 
0.7834586710361255 8140:1 9191:1 11968:1 14492:1 15384:1 17350:1 17354:1 18077:1 
0.330948643720978 0:1 376:1 451:1 490:1 1201:1 3929:1 4297:1 5182:1 5354:1 5721:1 7348:1 7575:1 7868:1 8419:1 8508:1 8612:1 8998:1 9115:1 10188:1 11202:1 11561:1 11798:1 12012:1 14731:1 15380:1 15793:1 15985:1 16229:1 16276:1 16942:1 17426:1 17668:1 19116:1 
0.1716266441746193 592:1 1201:1 1675:1 7801:1 8419:1 8998:1 9115:1 11832:1 17153:1 17366:1 18890:1 19076:1 
0.6426591453548599 2330:1 6341:1 7010:1 7352:1 9115:1 10074:1 13848:1 
0.8187904270559864 2442:1 8419:1 8465:1 9115:1 10271:1 18855:1 19047:1 19477:1 
4 9875:1 11202:1 11731:1 15053:1 15226:1 17350:1 17354:1 18890:1 19349:1 
0.8853374678661681 0:1 2692:1 8140:1 9130:1 11580:1 
3.554591477095437 2817:1 8078:1 8419:1 11731:1 11732:1 12158:1 17354:1 17607:1 17975:1 18890:1 
1.281009570975851 41:1 5916:1 8953:1 10567:1 11963:1 12108:1 
4 687:1 1801:1 8419:1 10188:1 11531:1 
3.597076957977157 0:1 6391:1 7679:1 8419:1 8465:1 8637:1 11028:1 11810:1 
4 812:1 1464:1 6708:1 7333:1 8078:1 8419:1 8612:1 13588:1 14731:1 17034:1 17350:1 17607:1 18556:1 18809:1 19057:1 19477:1 
1.438079641863074 5059:1 8419:1 9115:1 9365:1 11754:1 16037:1 17034:1 17350:1 18449:1 
1.545593578661411 0:1 1398:1 6431:1 11409:1 15745:1 17350:1 17607:1 19355:1 
0.7605624009166865 6461:1 6518:1 11531:1 11798:1 18449:1 19133:1 19487:1 
0.6672952933763329 3949:1 7241:1 8419:1 9995:1 15980:1 19477:1 
1.148187217889756 592:1 3290:1 7603:1 7868:1 9115:1 9365:1 9995:1 11967:1 12750:1 15085:1 17607:1 18955:1 19057:1 19258:1 
2.038316697516567 2330:1 5913:1 8419:1 8465:1 9736:1 12012:1 15085:1 17362:1 19195:1 
2.207150109459668 0:1 592:1 1464:1 6708:1 7703:1 8078:1 8998:1 9137:1 9660:1 13005:1 17350:1 17354:1 19443:1 
0.4906931224100832 480:1 4236:1 8419:1 8612:1 9115:1 18890:1 
0.7716387765436373 7868:1 8108:1 10359:1 10567:1 12826:1 14958:1 15896:1 17350:1 19355:1 
0.9310256545475794 343:1 2442:1 6336:1 8419:1 9792:1 11202:1 17354:1 18627:1 
0.6450681413050642 592:1 7529:1 7868:1 9115:1 9901:1 11409:1 15746:1 17350:1 17607:1 18444:1 19057:1 19290:1 19477:1 
1.004411852535015 5017:1 7040:1 9365:1 9901:1 17034:1 
4 592:1 10567:1 11796:1 17973:1 18015:1 
4 1616:1 7301:1 8157:1 9365:1 11881:1 
3.217140633522877 809:1 1398:1 8003:1 8302:1 8419:1 8612:1 9115:1 9547:1 9901:1 10838:1 11580:1 19057:1 19129:1 19477:1 
0.9295283836347094 41:1 8998:1 11132:1 12385:1 17389:1 17426:1 19477:1 
0.2722123546391821 8612:1 10961:1 11561:1 11731:1 11963:1 11967:1 13500:1 17922:1 
0.9214408491959334 451:1 1251:1 1974:1 12753:1 15337:1 17354:1 17551:1 19258:1 
4 4401:1 9095:1 11531:1 17350:1 17405:1 19057:1 
0.9108249431137018 7892:1 8465:1 9115:1 10536:1 11531:1 11561:1 14221:1 14497:1 14731:1 17607:1 18855:1 19477:1 19487:1 
4 5392:1 10567:1 13813:1 19477:1 
4 5129:1 7333:1 11561:1 
0.1991041273877209 592:1 3287:1 7389:1 8612:1 11953:1 16388:1 17354:1 18556:1 18946:1 19477:1 
0.5088107142858527 592:1 687:1 5129:1 6456:1 7851:1 8419:1 10301:1 11531:1 13821:1 17376:1 
1.814267080072433 4709:1 7379:1 8419:1 10114:1 11202:1 11757:1 14731:1 
0.3850625645247805 4169:1 9115:1 9901:1 11406:1 14731:1 15945:1 16013:1 17350:1 19076:1 19477:1 
3.129485236354076 4999:1 10567:1 11531:1 12771:1 14459:1 
2.056094914650757 1175:1 4999:1 6924:1 11881:1 17354:1 18855:1 19477:1 
4 1433:1 3287:1 5911:1 8218:1 8419:1 10271:1 10579:1 10974:1 17350:1 17607:1 
0.6937054581420433 6703:1 8419:1 10114:1 10301:1 
4 7185:1 10567:1 11798:1 
0.5983474389376857 7868:1 8612:1 9115:1 13588:1 14957:1 17607:1 19076:1 19477:1 
3.324046685970043 592:1 5913:1 6449:1 7188:1 8998:1 9115:1 12012:1 14731:1 17366:1 
3.46277518980376 1619:1 8419:1 9115:1 9365:1 10188:1 11469:1 14731:1 17342:1 17607:1 18450:1 19057:1 
0.2269613854090531 999:1 1464:1 2442:1 6708:1 8285:1 9115:1 9365:1 14318:1 17034:1 18556:1 18955:1 
0.5970482855601811 5059:1 7852:1 8419:1 8612:1 9115:1 9901:1 11096:1 11202:1 12404:1 17034:1 
0.5677049345181358 6309:1 11202:1 17150:1 18854:1 
1.801922265484247 5906:1 6257:1 7347:1 8419:1 9095:1 17354:1 17426:1 18556:1 
3.820405897586767 1271:1 2330:1 8078:1 8419:1 
0.9601564013762023 494:1 592:1 8508:1 15899:1 17719:1 19045:1 
0.528871621735392 7162:1 7758:1 8612:1 9115:1 11202:1 11402:1 12709:1 17551:1 
1.711958927762842 5721:1 8612:1 11531:1 12086:1 14731:1 17376:1 17426:1 
4 2442:1 8419:1 8612:1 9095:1 11798:1 17034:1 17239:1 17350:1 
0.6837065520768573 0:1 5939:1 7185:1 7301:1 7691:1 8612:1 9115:1 10567:1 11202:1 11798:1 14731:1 15980:1 17737:1 
0.7324717958602026 9371:1 11202:1 12760:1 13689:1 16495:1 19258:1 
0.6545756459004444 4999:1 7185:1 8302:1 8465:1 8612:1 9115:1 9547:1 10704:1 17274:1 17350:1 17354:1 18955:1 19195:1 19477:1 
0.126482860864597 490:1 2330:1 2852:1 7384:1 9186:1 11202:1 16037:1 
0.00828327463319215 3833:1 8419:1 9095:1 9115:1 9343:1 10060:1 14626:1 17342:1 17405:1 17426:1 17444:1 18890:1 18955:1 19258:1 19363:1 
1.114024325223677 511:1 5386:1 8419:1 10188:1 11757:1 
0.4409589628578929 592:1 2300:1 6134:1 7384:1 8419:1 8612:1 9115:1 11202:1 14731:1 16461:1 
0.103438788473858 592:1 7832:1 9115:1 9130:1 9331:1 11469:1 15661:1 15773:1 15896:1 
4 999:1 8302:1 9095:1 9115:1 10069:1 11132:1 15085:1 15774:1 
1.822350707534941 6146:1 8387:1 9115:1 11202:1 14731:1 15896:1 17571:1 
4 451:1 1398:1 6708:1 7058:1 11327:1 11561:1 17426:1 17607:1 18401:1 19477:1 
0.4761961978211127 856:1 7185:1 8419:1 9365:1 10114:1 11096:1 17350:1 17607:1 17973:1 18916:1 19477:1 19487:1 
2.257139575026688 900:1 1616:1 7679:1 7868:1 8419:1 9095:1 11531:1 11731:1 11798:1 11954:1 15980:1 17354:1 17426:1 
3.922084668286857 0:1 1440:1 7801:1 9115:1 10567:1 11731:1 12209:1 14731:1 15896:1 
0.6951329288376387 0:1 10095:1 11637:1 11731:1 14731:1 17350:1 19130:1 
0.3592123365442803 0:1 5040:1 6708:1 8419:1 9995:1 11796:1 14459:1 17081:1 17350:1 
1.582722683341808 11967:1 13813:1 16446:1 19477:1 
0.2583968010210572 1885:1 8189:1 8998:1 12404:1 14731:1 15941:1 16222:1 16446:1 16495:1 19487:1 
0.7852845155688657 451:1 592:1 999:1 4999:1 5453:1 7868:1 7974:1 8003:1 8419:1 8612:1 10188:1 10301:1 11132:1 11494:1 11731:1 13590:1 13813:1 15896:1 15980:1 17354:1 17607:1 17668:1 19057:1 19324:1 19477:1 
0.05204542431044244 0:1 392:1 451:1 592:1 809:1 1398:1 1795:1 3696:1 5017:1 5059:1 6464:1 7185:1 7333:1 7352:1 7489:1 7654:1 8302:1 8465:1 8612:1 9095:1 9115:1 9130:1 10515:1 11383:1 11881:1 12430:1 16052:1 16396:1 16555:1 16725:1 17034:1 17350:1 17607:1 17727:1 18133:1 18946:1 19195:1 19477:1 19487:1 
0.5715691266790451 92:1 5065:1 8612:1 13857:1 17354:1 
0.5839316544551448 0:1 451:1 592:1 7352:1 7868:1 8612:1 9365:1 9824:1 9995:1 14731:1 16266:1 17551:1 18955:1 
0.2096962203448375 6708:1 7191:1 9115:1 9526:1 11202:1 11796:1 15896:1 17350:1 18890:1 19350:1 
0.5601411107700273 900:1 907:1 939:1 7185:1 7868:1 8419:1 8637:1 9095:1 9115:1 9542:1 9901:1 11132:1 11202:1 11580:1 11732:1 11810:1 12973:1 13941:1 16055:1 17607:1 17973:1 18372:1 18459:1 
4 4194:1 4999:1 6708:1 7868:1 8419:1 10114:1 10271:1 17350:1 17607:1 18857:1 19057:1 19477:1 
0.03473372533450667 2330:1 7918:1 8419:1 9115:1 11531:1 15414:1 17350:1 18890:1 
4 5910:1 8612:1 9095:1 
4 7185:1 8612:1 11327:1 11953:1 12404:1 17376:1 17607:1 
4 592:1 1175:1 6924:1 7185:1 8419:1 9995:1 17354:1 19477:1 
1.685491342829938 592:1 1445:1 7185:1 7301:1 7333:1 8419:1 10188:1 11202:1 17607:1 18629:1 
4 856:1 7301:1 10537:1 11953:1 15434:1 15502:1 17354:1 19477:1 
1.500905502600952 592:1 1464:1 6341:1 7891:1 8419:1 8612:1 8849:1 9115:1 9901:1 10567:1 10748:1 11426:1 11731:1 11768:1 14731:1 17354:1 18401:1 18814:1 
0.4141431259362886 0:1 9095:1 10301:1 12956:1 14997:1 17426:1 19019:1 
4 809:1 3835:1 8302:1 8419:1 8998:1 10567:1 13848:1 17034:1 17239:1 19477:1 
1.291526640181002 0:1 689:1 2330:1 4722:1 6157:1 7891:1 8078:1 8419:1 8612:1 9115:1 11202:1 11531:1 16274:1 17449:1 17555:1 17607:1 17633:1 
2.689022936679379 0:1 1675:1 9365:1 9983:1 11028:1 14472:1 17376:1 19442:1 
2.376849184310881 687:1 1251:1 1475:1 5033:1 5544:1 7737:1 8134:1 8612:1 9365:1 17354:1 17362:1 18058:1 19258:1 19487:1 
4 2442:1 3290:1 4999:1 7758:1 7891:1 8078:1 8419:1 8465:1 8612:1 11202:1 17607:1 18855:1 19026:1 19057:1 19258:1 
4 41:1 592:1 1240:1 7892:1 9817:1 11028:1 17354:1 19345:1 
1.035187544917801 5129:1 11630:1 12674:1 17354:1 19032:1 19396:1 
3.320965996817072 0:1 1475:1 1804:1 7230:1 8419:1 11383:1 18556:1 
1.878874196248569 7333:1 8612:1 9130:1 9365:1 11531:1 14731:1 15991:1 17376:1 19396:1 
0.2772165917860622 1381:1 3787:1 7191:1 7703:1 8612:1 9095:1 9115:1 9365:1 17354:1 
0.2093168821207387 679:1 5059:1 8419:1 9901:1 11731:1 11789:1 12959:1 17034:1 17387:1 
1.648008469996302 0:1 592:1 924:1 939:1 2330:1 2426:1 4198:1 5982:1 7653:1 7751:1 7916:1 8419:1 8465:1 8612:1 8983:1 9666:1 11202:1 11967:1 12925:1 13501:1 13832:1 14146:1 14519:1 17354:1 17607:1 17668:1 18890:1 19076:1 
0.7423499366121264 999:1 3835:1 8419:1 9115:1 9365:1 13971:1 15896:1 16340:1 16495:1 17034:1 18890:1 
4 592:1 5129:1 7301:1 7868:1 17607:1 18401:1 19477:1 
0.6041570609325204 41:1 9271:1 9365:1 12160:1 14731:1 14858:1 15991:1 17376:1 
4 1795:1 7348:1 8419:1 17350:1 18890:1 
2.756903650044599 7653:1 8302:1 9095:1 10058:1 10069:1 17350:1 19363:1 
2.019272453002054 480:1 5066:1 8141:1 9766:1 11028:1 11810:1 18058:1 
2.638887445054138 3287:1 7891:1 9718:1 17607:1 17668:1 18890:1 
1.035378137267746 451:1 1758:1 5276:1 6157:1 9115:1 9365:1 11202:1 12012:1 19477:1 
3.615253700086054 7787:1 14664:1 17354:1 17607:1 19057:1 
0.01537570695383564 451:1 592:1 856:1 5129:1 6505:1 6923:1 7301:1 8419:1 9901:1 15502:1 17366:1 17607:1 18401:1 
0.5107891019836307 2330:1 7188:1 9115:1 12822:1 14731:1 15414:1 16518:1 17354:1 17607:1 
0.6942985349994611 451:1 2330:1 3833:1 8419:1 9115:1 16926:1 17444:1 18890:1 19396:1 
2.482812994542708 1587:1 1795:1 3833:1 8078:1 8419:1 17342:1 
2.289423889719459 0:1 2797:1 5042:1 5472:1 6708:1 7749:1 9095:1 19363:1 
1.838229955403023 2177:1 4999:1 8189:1 11881:1 12659:1 18855:1 19477:1 
1.219021604305434 809:1 999:1 1954:1 8612:1 9115:1 9901:1 11096:1 11531:1 14731:1 14807:1 17354:1 17389:1 17551:1 19487:1 
4 2442:1 7301:1 8612:1 10276:1 11731:1 11963:1 12209:1 14097:1 17376:1 17408:1 19057:1 19477:1 
2.422301726983511 0:1 5140:1 7868:1 8419:1 11138:1 
1.452144836936467 451:1 592:1 4723:1 6338:1 7191:1 8419:1 9115:1 9365:1 9901:1 11731:1 11768:1 13848:1 16350:1 17034:1 17354:1 17366:1 18890:1 19045:1 
0.3897708613433243 592:1 1175:1 2354:1 3774:1 4737:1 5129:1 7185:1 7301:1 7348:1 7654:1 8465:1 8612:1 10125:1 11580:1 11967:1 13500:1 17131:1 17354:1 19477:1 19487:1 
1.991999208258348 7352:1 8419:1 8612:1 9115:1 11096:1 11202:1 15896:1 16453:1 18890:1 19249:1 
2.254478234610757 999:1 7384:1 7997:1 8419:1 17366:1 19026:1 19045:1 19455:1 
1.042019860831777 0:1 999:1 2330:1 5059:1 6708:1 8419:1 9115:1 9547:1 10093:1 10188:1 10567:1 11967:1 13589:1 17034:1 17084:1 17426:1 19155:1 19322:1 
0.6741049415710174 1464:1 7560:1 7868:1 8419:1 9115:1 9365:1 10758:1 17350:1 17354:1 17408:1 18457:1 18890:1 
0.1571799400343951 0:1 690:1 1398:1 3860:1 7333:1 8612:1 9115:1 9365:1 10515:1 12012:1 14731:1 15053:1 16735:1 17354:1 17607:1 18401:1 19057:1 
0.7407609714304241 2330:1 2516:1 4803:1 4999:1 7236:1 7654:1 8465:1 9115:1 10758:1 11531:1 14731:1 16869:1 18444:1 19477:1 
4 6708:1 9095:1 10567:1 10586:1 11132:1 17426:1 17607:1 18946:1 
0.2624428782067542 9115:1 10910:1 14731:1 14799:1 
1.401020460780118 0:1 5936:1 7691:1 7832:1 9115:1 11796:1 17426:1 
1.226280799863753 41:1 6742:1 8419:1 8612:1 9115:1 11096:1 11202:1 11561:1 17354:1 18855:1 19368:1 
0.07413207706428904 0:1 809:1 999:1 1398:1 2330:1 3301:1 6708:1 7801:1 8465:1 8612:1 9115:1 10536:1 13117:1 14459:1 14731:1 14761:1 18444:1 18955:1 19188:1 
4 451:1 592:1 1372:1 4722:1 6157:1 7384:1 8612:1 9115:1 11202:1 12012:1 17354:1 18955:1 
0.9577659323921235 511:1 592:1 7185:1 7691:1 7801:1 9130:1 11731:1 11967:1 15896:1 16448:1 17607:1 19487:1 
2.086035088596493 7301:1 8612:1 9365:1 17034:1 17405:1 17426:1 19295:1 
0.09708667985373504 0:1 1616:1 2815:1 7272:1 9365:1 9630:1 11202:1 11796:1 18083:1 
0.5749978707342436 2330:1 2442:1 6336:1 7737:1 8419:1 8612:1 9115:1 11202:1 13588:1 14472:1 16219:1 17034:1 17354:1 19258:1 
0.4349014676917536 0:1 999:1 1398:1 1616:1 4723:1 4999:1 5652:1 6091:1 9115:1 14472:1 16855:1 17034:1 17354:1 17376:1 17607:1 18804:1 18890:1 18955:1 
1.179325663517301 2330:1 5000:1 11798:1 14731:1 17426:1 18089:1 
1.714201942763047 0:1 8419:1 9115:1 9347:1 10188:1 11402:1 11796:1 12841:1 15085:1 17354:1 17551:1 
0.1735736004840701 1754:1 7265:1 7384:1 8419:1 10058:1 14731:1 15896:1 19258:1 
1.084319820654242 374:1 592:1 679:1 7301:1 8385:1 8419:1 8612:1 9115:1 9817:1 10073:1 10188:1 10271:1 11531:1 16442:1 17034:1 17376:1 19076:1 19295:1 
4 2471:1 6977:1 8419:1 9095:1 11096:1 11202:1 16037:1 17092:1 19076:1 
0.4587589323603355 0:1 27:1 1178:1 1398:1 7185:1 7333:1 7891:1 8612:1 11531:1 14731:1 16491:1 17354:1 17376:1 17607:1 18946:1 
0.6849301853211476 687:1 12387:1 19466:1 
4 999:1 7892:1 8419:1 9901:1 13813:1 14731:1 19081:1 19477:1 
2.33890109170318 0:1 5072:1 6505:1 8140:1 9095:1 13029:1 17354:1 19345:1 
0.5437178938466133 451:1 1201:1 1464:1 6336:1 6708:1 8419:1 8612:1 9547:1 10058:1 10073:1 11187:1 11426:1 12430:1 12709:1 15896:1 16442:1 17350:1 17354:1 17607:1 18556:1 19477:1 
0.6101717049042595 809:1 2330:1 7825:1 15896:1 15995:1 17395:1 19477:1 
4 592:1 809:1 1475:1 5129:1 5899:1 7185:1 7654:1 8612:1 11967:1 12158:1 19421:1 19477:1 19487:1 
3.064220659429286 0:1 3287:1 5909:1 8612:1 10271:1 10695:1 11202:1 14612:1 17551:1 19477:1 
0.8398478856464244 1398:1 2520:1 6615:1 7191:1 11796:1 13405:1 13813:1 17354:1 19477:1 
1.687586134099168 0:1 511:1 1140:1 3709:1 7851:1 7868:1 7891:1 8302:1 8419:1 8612:1 9115:1 10567:1 11096:1 11202:1 14731:1 15896:1 17607:1 17904:1 19093:1 19258:1 
2.542598499697564 490:1 8419:1 8612:1 9115:1 14731:1 17408:1 
0.3841536896991992 2330:1 2442:1 2852:1 7868:1 11202:1 11768:1 17034:1 19477:1 
1.545184449502046 682:1 2442:1 5059:1 5721:1 7801:1 8419:1 8465:1 9115:1 9547:1 10271:1 10838:1 11202:1 11580:1 17034:1 17081:1 17354:1 17478:1 17607:1 18890:1 19133:1 
0.6967126612694241 809:1 856:1 1464:1 2330:1 7191:1 7654:1 7868:1 7872:1 8003:1 8419:1 10147:1 12274:1 17354:1 17362:1 17617:1 17940:1 18401:1 
1.309179265508542 0:1 5129:1 5318:1 8419:1 8465:1 9115:1 9983:1 10188:1 14731:1 16037:1 17376:1 
4 4709:1 7241:1 10567:1 15980:1 
1.661480250660513 41:1 451:1 592:1 1147:1 1795:1 7384:1 7691:1 8419:1 8612:1 9115:1 11202:1 17607:1 18890:1 
2.008907328911797 592:1 1616:1 7384:1 7891:1 8419:1 9365:1 11366:1 11731:1 11967:1 12606:1 17354:1 17376:1 17670:1 18890:1 
2.815409383448455 1475:1 2330:1 5906:1 8327:1 8419:1 8612:1 11541:1 16446:1 17376:1 17406:1 17903:1 18556:1 19327:1 
4 1499:1 8419:1 8612:1 11058:1 11202:1 11731:1 15431:1 17081:1 17354:1 
1.492681875387837 1140:1 2330:1 5033:1 6341:1 6708:1 7489:1 9115:1 10074:1 11757:1 12404:1 13813:1 16812:1 18916:1 19076:1 19477:1 
2.351366301318588 326:1 511:1 592:1 2173:1 4999:1 9095:1 9115:1 10960:1 11202:1 11541:1 11731:1 15613:1 17607:1 17716:1 18860:1 19258:1 
1.56576826019948 0:1 9901:1 10074:1 11098:1 17350:1 19026:1 
0.1607856506319533 5129:1 5899:1 7868:1 8465:1 9115:1 9365:1 9410:1 10278:1 10515:1 10567:1 11202:1 11469:1 15445:1 17081:1 17478:1 17607:1 19057:1 19477:1 
1.887743538589272 1464:1 1795:1 5059:1 7868:1 8419:1 8440:1 9438:1 11469:1 14731:1 17034:1 17350:1 17405:1 18854:1 19081:1 
2.974817377937347 954:1 6157:1 8419:1 8612:1 11202:1 13848:1 16228:1 17348:1 18857:1 19487:1 
4 900:1 1616:1 7891:1 9115:1 11563:1 14772:1 18890:1 
0.1163464628749751 592:1 900:1 999:1 1118:1 6157:1 6977:1 7410:1 7737:1 8099:1 8552:1 8849:1 8998:1 9143:1 9766:1 11103:1 12226:1 13730:1 14731:1 15450:1 15577:1 15896:1 16442:1 16447:1 17354:1 17360:1 17366:1 17607:1 18449:1 19093:1 19258:1 19477:1 19487:1 
2.317351604009056 2154:1 7576:1 9095:1 11202:1 18629:1 
4 0:1 999:1 6708:1 9751:1 11469:1 16740:1 18997:1 
0.2321153866377896 8419:1 9901:1 10467:1 10612:1 11531:1 15634:1 
0.6450316761764701 5129:1 6157:1 9115:1 9335:1 11202:1 14705:1 14731:1 15896:1 
2.509822790025414 1503:1 9526:1 11768:1 11796:1 11963:1 13813:1 14731:1 17350:1 17607:1 18450:1 18955:1 
1.930304883332849 8419:1 11767:1 16927:1 
1.41077052031013 0:1 5017:1 5059:1 7185:1 8218:1 8419:1 8748:1 10301:1 10567:1 15423:1 17034:1 17350:1 17405:1 17607:1 18855:1 
1.908276420652157 1421:1 3833:1 6708:1 8419:1 8465:1 9115:1 10567:1 17607:1 18855:1 19477:1 
4 687:1 8419:1 8612:1 9875:1 11202:1 11383:1 15097:1 15414:1 15896:1 18556:1 
0.8603929432655049 511:1 636:1 819:1 999:1 3287:1 16734:1 17555:1 19477:1 
4 513:1 5033:1 5059:1 8419:1 14472:1 17034:1 17408:1 17426:1 
0.42456081371427 1162:1 2628:1 3287:1 4396:1 5291:1 8003:1 8419:1 10069:1 11967:1 18034:1 
4 511:1 513:1 5129:1 7301:1 7832:1 8419:1 11798:1 17354:1 17607:1 19129:1 19155:1 
0.4135137156043763 0:1 592:1 1433:1 7489:1 9115:1 11731:1 12959:1 13848:1 14731:1 14855:1 16453:1 17376:1 17652:1 
1.253495182829221 1475:1 5390:1 7122:1 7891:1 9115:1 9901:1 11383:1 11967:1 14731:1 
4 1251:1 9095:1 9410:1 17350:1 19081:1 19477:1 19487:1 
2.190673505619441 592:1 1805:1 15502:1 16741:1 19089:1 
0.59134162561197 592:1 3637:1 8092:1 9410:1 10080:1 11327:1 17534:1 17607:1 19477:1 19487:1 
0.5208525723689166 0:1 3833:1 7352:1 7868:1 8419:1 9365:1 10095:1 10301:1 11731:1 11757:1 11802:1 14146:1 17362:1 18955:1 19249:1 
4 809:1 1201:1 3287:1 5244:1 11810:1 17389:1 17668:1 18955:1 19076:1 19440:1 
0.2309874810614403 691:1 2330:1 3833:1 5017:1 6523:1 8419:1 9115:1 10271:1 15241:1 17034:1 
0.307137653758685 0:1 689:1 1556:1 5016:1 7333:1 8465:1 8612:1 9115:1 9365:1 10515:1 10837:1 11967:1 13813:1 13848:1 14731:1 17081:1 17607:1 19477:1 
2.026348893505078 41:1 839:1 6208:1 6341:1 9095:1 9115:1 9130:1 9901:1 11202:1 11732:1 15896:1 17579:1 17607:1 
0.6787066003749942 1837:1 2442:1 5003:1 7800:1 8612:1 13628:1 14731:1 15896:1 17354:1 17360:1 17389:1 
0.02848779611970585 451:1 6169:1 8612:1 12012:1 13813:1 15941:1 19477:1 
-0.09622902838943627 0:1 41:1 592:1 1445:1 1503:1 1571:1 1696:1 3949:1 5392:1 5986:1 6231:1 7572:1 7891:1 8388:1 8419:1 8427:1 8612:1 9095:1 11202:1 12154:1 12209:1 17096:1 17114:1 17354:1 17426:1 17534:1 17607:1 17682:1 18401:1 18833:1 18890:1 
-0.4304650826433564 1433:1 3835:1 4198:1 8003:1 8302:1 8419:1 8612:1 10567:1 11153:1 11202:1 11810:1 11967:1 13500:1 17034:1 17551:1 17633:1 18890:1 
-0.07552335024937817 1175:1 2330:1 3291:1 4723:1 5129:1 5446:1 5721:1 7333:1 7691:1 7868:1 8078:1 8134:1 8388:1 8419:1 9476:1 10567:1 11034:1 11202:1 11731:1 11796:1 15501:1 16753:1 17034:1 17354:1 17426:1 17444:1 17607:1 18890:1 19093:1 
-0.1130010187938986 101:1 592:1 1251:1 2003:1 5129:1 6383:1 6584:1 6708:1 7333:1 7891:1 8078:1 8419:1 8612:1 9453:1 9709:1 9770:1 10567:1 10838:1 11202:1 11402:1 11796:1 11919:1 11967:1 12956:1 17261:1 17354:1 18890:1 19076:1 
-0.1213932117357456 41:1 3835:1 7185:1 8419:1 9115:1 10088:1 11202:1 17034:1 17607:1 18401:1 18690:1 18890:1 
-0.1567116488957532 0:1 41:1 5175:1 5270:1 7679:1 7872:1 8419:1 14096:1 14664:1 15255:1 19045:1 19258:1 
-0.1070556100207291 592:1 4040:1 6469:1 7234:1 7997:1 8419:1 11202:1 14977:1 15857:1 17366:1 19271:1 
-0.2953770674189045 1464:1 7384:1 7622:1 7868:1 8419:1 9115:1 9197:1 10058:1 11202:1 12627:1 14731:1 15241:1 17350:1 18916:1 19093:1 19442:1 
-0.01115734872637773 0:1 173:1 343:1 3067:1 7241:1 7384:1 8036:1 8257:1 8419:1 9115:1 9901:1 10069:1 10567:1 11202:1 11320:1 13588:1 15896:1 15980:1 17350:1 17354:1 17607:1 18488:1 19355:1 
-0.3212064026067853 0:1 592:1 1398:1 2003:1 3867:1 4194:1 4256:1 7342:1 7384:1 7868:1 8267:1 8419:1 9115:1 10095:1 11202:1 11732:1 11796:1 11797:1 12693:1 14731:1 16243:1 16348:1 17342:1 17350:1 17354:1 17444:1 17607:1 18401:1 18556:1 18890:1 19047:1 19129:1 19355:1 
-0.3304390295703779 0:1 1965:1 2003:1 7891:1 9115:1 10567:1 11028:1 11202:1 11561:1 12818:1 14461:1 16442:1 17342:1 
-0.214422014468484 1433:1 2003:1 2418:1 3949:1 6977:1 7679:1 8419:1 9095:1 9864:1 11202:1 11458:1 11731:1 11796:1 16636:1 17034:1 17350:1 17354:1 19101:1 19357:1 
-0.3108152640283356 0:1 592:1 1201:1 1464:1 5066:1 6458:1 6708:1 7234:1 7352:1 8285:1 8419:1 9095:1 9115:1 9661:1 10060:1 10271:1 11202:1 11393:1 11561:1 12643:1 16453:1 16869:1 17607:1 17670:1 18058:1 18556:1 18955:1 19258:1 19327:1 19331:1 
-0.1194473415974093 567:1 592:1 4854:1 7301:1 7331:1 8419:1 8612:1 9115:1 9222:1 10301:1 11771:1 11796:1 11810:1 12890:1 13588:1 15085:1 15980:1 17354:1 17607:1 18198:1 
-0.05140358851039531 151:1 592:1 1999:1 2426:1 6449:1 7891:1 8419:1 9901:1 10567:1 11409:1 12894:1 17354:1 17607:1 18058:1 18401:1 18472:1 19322:1 
-0.04928130093641316 592:1 1398:1 1445:1 2003:1 2426:1 6731:1 8419:1 8612:1 8849:1 10748:1 11096:1 11202:1 11731:1 11967:1 15985:1 17354:1 17607:1 18855:1 18890:1 19258:1 19477:1 
-4 1398:1 3835:1 6505:1 6708:1 7679:1 8419:1 9115:1 11732:1 12012:1 17034:1 17354:1 17551:1 17607:1 18804:1 
-0.2489203371112378 0:1 924:1 1106:1 1433:1 1616:1 2354:1 2806:1 3076:1 5005:1 5129:1 7376:1 7679:1 7801:1 7891:1 8321:1 8386:1 8419:1 9115:1 10567:1 11202:1 11796:1 12158:1 12587:1 13500:1 13857:1 14206:1 14874:1 15337:1 15896:1 17034:1 17350:1 17354:1 17607:1 18458:1 18890:1 18901:1 19032:1 19076:1 19258:1 19290:1 
-0.4689688675895688 592:1 4999:1 6796:1 7188:1 7872:1 8388:1 8419:1 9115:1 10567:1 11028:1 11202:1 11347:1 11731:1 11732:1 11967:1 12776:1 17350:1 17366:1 
-0.01226166622804562 0:1 592:1 632:1 810:1 1398:1 4194:1 5495:1 5913:1 6523:1 6708:1 7801:1 8419:1 8612:1 9115:1 9739:1 9901:1 10567:1 11182:1 11202:1 11402:1 11771:1 12012:1 14070:1 15217:1 16328:1 17182:1 17350:1 17354:1 17534:1 17607:1 18401:1 18890:1 19076:1 19112:1 19195:1 19487:1 
-0.5138737729246583 451:1 8419:1 9115:1 10094:1 11202:1 11580:1 11731:1 15053:1 17670:1 18690:1 
-0.2310163387882886 928:1 1201:1 1938:1 6347:1 8419:1 10188:1 10486:1 11204:1 15896:1 17350:1 19093:1 
-0.09408025141381528 0:1 188:1 722:1 939:1 1032:1 1398:1 1433:1 1445:1 2334:1 4701:1 6254:1 6915:1 7185:1 7333:1 7679:1 7801:1 7868:1 7891:1 8134:1 8321:1 8388:1 8419:1 8612:1 9115:1 9660:1 11202:1 11426:1 15688:1 15894:1 15896:1 15991:1 16453:1 17350:1 17444:1 17607:1 17975:1 18054:1 18890:1 19258:1 
-0.6572165557532048 0:1 567:1 3128:1 7679:1 8419:1 8612:1 11006:1 11918:1 14656:1 14731:1 15226:1 15851:1 17350:1 17354:1 17405:1 17555:1 17607:1 18556:1 
-0.2721733441146373 8388:1 8419:1 10705:1 11202:1 11953:1 14731:1 19176:1 
-0.1050805068771456 0:1 567:1 592:1 1610:1 2426:1 2597:1 4194:1 5493:1 8099:1 8419:1 9115:1 9901:1 9983:1 10301:1 10567:1 11796:1 12251:1 12304:1 12525:1 13586:1 14563:1 15442:1 15896:1 16603:1 17354:1 17607:1 17668:1 18401:1 19487:1 
-0.1759928742296933 592:1 2003:1 2861:1 3290:1 6449:1 7679:1 7891:1 8419:1 9115:1 9901:1 11006:1 11202:1 11580:1 11731:1 11732:1 16056:1 19076:1 
-0.03344078322087881 567:1 1354:1 1433:1 2442:1 4297:1 4847:1 5017:1 5811:1 7185:1 8284:1 8419:1 8612:1 9115:1 9365:1 10572:1 11426:1 11796:1 14251:1 17034:1 17350:1 17354:1 17484:1 18384:1 
-0.05993172816742003 0:1 592:1 647:1 2559:1 3709:1 5033:1 6281:1 6529:1 7997:1 8419:1 9115:1 10567:1 10837:1 11028:1 11202:1 11796:1 12564:1 13758:1 14563:1 15337:1 17342:1 17354:1 19034:1 19076:1 19093:1 19176:1 19258:1 
-0.3540370905406026 0:1 999:1 1176:1 3048:1 3833:1 4999:1 5129:1 7384:1 7758:1 8041:1 8419:1 8612:1 9115:1 9876:1 10567:1 11202:1 11541:1 12370:1 12753:1 15896:1 16539:1 16972:1 17354:1 17607:1 18642:1 18890:1 18918:1 19034:1 19045:1 19076:1 19093:1 19310:1 
-0.08986191220468212 0:1 451:1 567:1 609:1 999:1 1497:1 2135:1 7333:1 7384:1 7801:1 8419:1 9115:1 11109:1 11731:1 15832:1 16745:1 18058:1 18401:1 18890:1 18916:1 
-0.1686514988956596 567:1 1433:1 5810:1 7384:1 7679:1 8281:1 8419:1 10058:1 10757:1 11120:1 13813:1 14892:1 17081:1 17482:1 17607:1 
-0.1576561442134634 0:1 341:1 592:1 1433:1 1681:1 1802:1 2003:1 4999:1 5059:1 5721:1 6134:1 6315:1 7185:1 7191:1 7246:1 7868:1 8419:1 8612:1 8998:1 9115:1 9331:1 9794:1 11096:1 11202:1 11517:1 11731:1 11967:1 14472:1 15423:1 16219:1 16274:1 16735:1 16869:1 17034:1 17151:1 17354:1 17607:1 18890:1 19032:1 19396:1 
-1.166690164776067 1795:1 5059:1 5604:1 6708:1 8419:1 9263:1 10188:1 13832:1 17034:1 17408:1 17426:1 
-0.1939618042133659 3290:1 9115:1 12430:1 13456:1 14731:1 15337:1 16314:1 16507:1 17354:1 17607:1 19076:1 
-0.2228059480506992 1398:1 5082:1 5750:1 8612:1 9095:1 9115:1 9544:1 10838:1 11580:1 11796:1 12844:1 12973:1 17350:1 17354:1 19195:1 
-0.5177194018234985 0:1 679:1 2354:1 2442:1 2734:1 7301:1 8259:1 8419:1 8465:1 8612:1 9410:1 10271:1 11202:1 12670:1 12810:1 15896:1 16636:1 16869:1 17354:1 17607:1 18401:1 19477:1 
-0.5553106856439555 1170:1 2783:1 8419:1 9660:1 10586:1 11426:1 14858:1 19258:1 
-0.1576965459929988 451:1 592:1 1292:1 1372:1 3287:1 6615:1 7654:1 7679:1 8998:1 11732:1 12406:1 17092:1 17354:1 17607:1 18444:1 
-0.1539675245890015 5905:1 7333:1 7868:1 8078:1 9102:1 9138:1 10564:1 11239:1 13813:1 17034:1 17239:1 17607:1 19477:1 19487:1 
-0.3101725767435419 3324:1 5721:1 6059:1 6979:1 7679:1 7869:1 8419:1 9813:1 11308:1 14097:1 17034:1 17426:1 17607:1 
-0.03678702672601193 0:1 592:1 2620:1 2868:1 6954:1 8612:1 9115:1 11334:1 11896:1 13813:1 16453:1 16593:1 17350:1 18955:1 
-0.08348113587030623 1240:1 7037:1 10567:1 11202:1 11731:1 11967:1 13571:1 14151:1 17081:1 17350:1 17607:1 17650:1 
-0.5624164241269747 0:1 326:1 2086:1 8419:1 8465:1 8508:1 8998:1 12930:1 16495:1 18015:1 19195:1 
-0.6531515804543153 27:1 1398:1 2330:1 4723:1 7301:1 8187:1 8419:1 9318:1 10567:1 11731:1 11967:1 12209:1 13848:1 17034:1 17239:1 17350:1 17354:1 17607:1 17649:1 17661:1 18855:1 18860:1 
-0.02724094983277131 1308:1 8419:1 11426:1 11469:1 11967:1 15853:1 17350:1 17354:1 18890:1 
-0.03183668114437665 592:1 679:1 2318:1 2354:1 2734:1 3607:1 4722:1 8998:1 9753:1 10058:1 10567:1 10837:1 11580:1 11731:1 14705:1 17350:1 17918:1 18729:1 19477:1 
-0.2581437310312583 809:1 4071:1 5392:1 7185:1 7348:1 7892:1 7997:1 8419:1 11202:1 11967:1 15896:1 16609:1 17403:1 17444:1 18890:1 19076:1 
-0.337652593833351 0:1 856:1 2783:1 8029:1 8286:1 8419:1 10301:1 15773:1 16037:1 17039:1 17354:1 19258:1 19477:1 
-0.1481966975428865 0:1 1175:1 1503:1 5082:1 6923:1 8320:1 9115:1 11967:1 16518:1 17048:1 17354:1 17482:1 17607:1 19026:1 19032:1 
-0.1486453731719888 697:1 1175:1 1921:1 7185:1 7301:1 7679:1 9115:1 11034:1 11202:1 11953:1 17047:1 17350:1 17354:1 17426:1 17607:1 18835:1 18890:1 
-0.00181984186661348 101:1 567:1 2737:1 5299:1 7185:1 7352:1 8078:1 8419:1 8465:1 8612:1 9115:1 9365:1 10073:1 10758:1 11202:1 11531:1 11743:1 11830:1 14097:1 14731:1 15085:1 16384:1 17607:1 19034:1 19057:1 
-0.03148237684034019 491:1 3835:1 5371:1 7917:1 7997:1 9115:1 9792:1 12012:1 14731:1 15337:1 17034:1 19034:1 19477:1 
-0.5854760579824614 0:1 687:1 7107:1 8612:1 11096:1 11383:1 13588:1 14731:1 16593:1 17350:1 19155:1 19477:1 19487:1 
-0.2206335657543747 1996:1 4523:1 7832:1 8419:1 11202:1 17350:1 17408:1 18810:1 
-0.07461448273561215 999:1 5059:1 7333:1 8419:1 9130:1 9547:1 9550:1 9951:1 11582:1 11830:1 11881:1 14731:1 16501:1 17034:1 17350:1 17354:1 17607:1 19057:1 19347:1 
-0.01216044105045199 41:1 592:1 7191:1 7701:1 7729:1 7868:1 10873:1 13052:1 16495:1 17350:1 17607:1 17914:1 19477:1 
-0.1172645405175265 592:1 1787:1 5918:1 9095:1 9831:1 17376:1 19155:1 
-0.7501083490929915 0:1 592:1 999:1 6049:1 6651:1 8419:1 9095:1 9115:1 9365:1 10069:1 11181:1 11531:1 11757:1 15085:1 15873:1 17607:1 18890:1 19440:1 
-0.02848598953360488 809:1 5022:1 5033:1 6708:1 6924:1 8612:1 9115:1 11202:1 14316:1 15882:1 16661:1 17354:1 18955:1 19433:1 
-0.1297811180063196 0:1 900:1 11022:1 12841:1 16593:1 16964:1 18450:1 18955:1 
-0.3443814425236214 342:1 5392:1 7312:1 11757:1 11885:1 12362:1 15337:1 18890:1 
-0.3010374497121515 592:1 1175:1 3287:1 7531:1 8419:1 8612:1 8998:1 10444:1 12480:1 13813:1 14612:1 16778:1 17354:1 19258:1 19477:1 
-0.5181037628820243 0:1 592:1 3878:1 8419:1 9995:1 13730:1 15085:1 15613:1 19477:1 19487:1 
-0.09975603237600764 0:1 1999:1 3765:1 4288:1 8231:1 14460:1 
-0.05908263626613635 1398:1 2060:1 5556:1 5693:1 6762:1 8612:1 10903:1 11202:1 13297:1 15434:1 17607:1 18401:1 
-0.07028338002191258 0:1 592:1 1696:1 4322:1 7531:1 8419:1 8975:1 10188:1 10301:1 11796:1 14731:1 15337:1 17354:1 
-0.514386088816173 1268:1 2773:1 7185:1 8419:1 11327:1 11796:1 13848:1 15340:1 17408:1 17426:1 17607:1 18955:1 
-0.01987857274743355 592:1 900:1 2188:1 4999:1 5459:1 9206:1 11531:1 13610:1 15431:1 
-0.09135882522089282 451:1 809:1 2653:1 11202:1 12012:1 12305:1 13217:1 17376:1 
-0.6571490787120774 1693:1 2330:1 2442:1 2700:1 7907:1 10908:1 11409:1 11810:1 14731:1 16869:1 17350:1 17376:1 17973:1 19361:1 
-0.4643617478037816 0:1 1693:1 4049:1 7107:1 7891:1 8078:1 8419:1 10599:1 17555:1 19093:1 19323:1 
-0.3693426466389371 2442:1 5129:1 8331:1 9189:1 9365:1 11202:1 12158:1 13500:1 16001:1 17034:1 17354:1 17363:1 19076:1 19477:1 
-0.3159017790838968 0:1 1140:1 1946:1 2330:1 2442:1 3048:1 4757:1 6708:1 8419:1 10758:1 16052:1 17426:1 
-0.2580507615526258 199:1 333:1 1266:1 4194:1 6424:1 7242:1 7892:1 8419:1 9137:1 9995:1 11915:1 12712:1 14472:1 16348:1 17350:1 17354:1 17879:1 
-0.1401536026280214 592:1 1417:1 2330:1 2697:1 5392:1 7636:1 8890:1 9115:1 9901:1 10783:1 11731:1 14731:1 18723:1 
-0.1884702932382931 811:1 1791:1 2628:1 4724:1 5072:1 7185:1 7868:1 8419:1 11028:1 11967:1 13169:1 16869:1 17487:1 19155:1 
-0.0147294225524167 343:1 2712:1 3769:1 7348:1 7531:1 7801:1 7868:1 8419:1 9529:1 10301:1 11802:1 11810:1 14874:1 15241:1 15720:1 17354:1 17389:1 17607:1 17661:1 18835:1 19034:1 19076:1 
-0.640643965670316 0:1 1993:1 2330:1 6708:1 8419:1 8612:1 9766:1 9824:1 10382:1 10567:1 12012:1 13588:1 17034:1 17354:1 17389:1 17607:1 17903:1 19357:1 19477:1 
-0.3058325685441693 1900:1 2354:1 5749:1 7384:1 9365:1 14321:1 17354:1 
-0.6357436224438787 342:1 809:1 1175:1 2442:1 4035:1 7868:1 8419:1 8439:1 9115:1 11202:1 11561:1 11881:1 17607:1 18457:1 19477:1 
-0.1420067708212269 8364:1 8419:1 9115:1 10580:1 11202:1 14831:1 17607:1 19076:1 19477:1 
-0.002754964594727601 3129:1 3152:1 3166:1 6708:1 6796:1 8612:1 16289:1 17350:1 17354:1 18955:1 19036:1 19477:1 19490:1 
-0.2271851477550693 0:1 1661:1 2330:1 2471:1 5129:1 8419:1 9547:1 10572:1 13813:1 17389:1 17466:1 18015:1 18089:1 
-0.5255489653396913 2497:1 4722:1 6412:1 6873:1 7334:1 8612:1 11029:1 12114:1 14731:1 16228:1 17350:1 17354:1 19477:1 
-0.04822229924633584 5129:1 6923:1 8612:1 9365:1 14606:1 15701:1 16497:1 17354:1 17551:1 19477:1 
-0.2407150099045156 3847:1 6134:1 8021:1 8612:1 8943:1 9522:1 11580:1 11623:1 15337:1 17354:1 17366:1 17555:1 
-0.2759497172314454 1175:1 2156:1 4723:1 5129:1 7384:1 8302:1 11531:1 14437:1 14881:1 16306:1 16869:1 17034:1 18449:1 18955:1 
-0.1595495494130875 0:1 180:1 363:1 451:1 4172:1 9365:1 9410:1 9826:1 10819:1 11768:1 14093:1 17607:1 
-0.06264081764476739 0:1 592:1 1738:1 2885:1 6455:1 6708:1 7333:1 7400:1 8419:1 8612:1 9102:1 10181:1 10567:1 11327:1 11533:1 17034:1 17350:1 17354:1 17607:1 18015:1 18444:1 
-0.1593141210214469 5314:1 6161:1 8419:1 10188:1 11796:1 13169:1 13588:1 16869:1 17354:1 18955:1 19102:1 
-0.3315496869187966 592:1 2010:1 2426:1 2869:1 5042:1 5248:1 8998:1 9115:1 9365:1 10567:1 11202:1 11796:1 14612:1 15337:1 15446:1 15627:1 16145:1 17607:1 17633:1 19227:1 
-0.01762324955114138 342:1 451:1 592:1 1999:1 5122:1 7422:1 9115:1 9432:1 9680:1 9901:1 10567:1 11612:1 12012:1 12834:1 14731:1 14986:1 17389:1 
-0.01962180235311137 200:1 2354:1 2471:1 9323:1 9410:1 9660:1 9991:1 10567:1 10919:1 11426:1 11731:1 17354:1 17426:1 18415:1 18946:1 18955:1 19477:1 
-0.1052591234081905 592:1 1033:1 1175:1 1700:1 2506:1 7384:1 7684:1 8612:1 9130:1 9641:1 10046:1 10567:1 11767:1 11967:1 14847:1 15525:1 17239:1 17354:1 17607:1 18955:1 19034:1 19076:1 19477:1 
-0.9917907725741808 1619:1 3287:1 4725:1 11463:1 11881:1 14829:1 
-0.1953881515097441 8863:1 11731:1 11732:1 11796:1 12744:1 15431:1 17081:1 19477:1 
-0.4203048416352638 1464:1 2426:1 2803:1 7347:1 7838:1 7891:1 8302:1 8419:1 8612:1 9547:1 9901:1 10567:1 11580:1 11796:1 14731:1 15053:1 17034:1 17350:1 18556:1 19093:1 
-0.01544789211393178 1475:1 3235:1 6615:1 6754:1 7868:1 9901:1 10359:1 11796:1 15337:1 15896:1 15991:1 17354:1 17366:1 19455:1 19477:1 
-0.003644620231095056 595:1 3250:1 5815:1 6472:1 6701:1 7679:1 7868:1 8419:1 9550:1 9901:1 10483:1 11531:1 11797:1 15039:1 17350:1 17426:1 17607:1 
-0.1777585988567766 592:1 778:1 1803:1 5796:1 7241:1 8419:1 8612:1 9995:1 10567:1 13184:1 17354:1 19477:1 
-0.06615811375121816 592:1 2180:1 4722:1 9365:1 11094:1 11202:1 11796:1 12929:1 13588:1 17839:1 19301:1 19477:1 
-0.7697548749415404 817:1 2494:1 2506:1 4999:1 6985:1 7185:1 8003:1 8612:1 9115:1 10020:1 11132:1 11561:1 15896:1 16636:1 19155:1 19477:1 
-0.004093950969073795 592:1 2330:1 4252:1 4368:1 6954:1 7185:1 7348:1 8612:1 9901:1 10838:1 11235:1 11580:1 11881:1 11967:1 12750:1 17354:1 17607:1 17969:1 18955:1 19034:1 
-0.5498755445166997 0:1 592:1 687:1 707:1 1464:1 1616:1 3066:1 7868:1 8419:1 8465:1 9115:1 14165:1 17034:1 17354:1 17405:1 17607:1 19356:1 19357:1 19477:1 
-1.181190927609741 0:1 1675:1 7259:1 7703:1 8612:1 15337:1 
-0.3503096072718413 6615:1 8612:1 9365:1 9504:1 15616:1 15991:1 16111:1 17607:1 18372:1 19477:1 19487:1 
-0.004061362654868815 592:1 4168:1 7868:1 8419:1 9365:1 9796:1 9913:1 10567:1 10960:1 11202:1 15896:1 15980:1 17280:1 18401:1 18714:1 19258:1 19355:1 
-0.0321567395380053 0:1 342:1 1175:1 5096:1 7892:1 8419:1 8612:1 9817:1 10188:1 11132:1 11202:1 11235:1 11531:1 13832:1 14613:1 15085:1 17342:1 17350:1 17354:1 17607:1 18997:1 
-0.2076264823109108 809:1 999:1 1398:1 4027:1 4194:1 8302:1 10359:1 11967:1 12393:1 16887:1 17376:1 19477:1 
-0.1172502771922706 592:1 999:1 2442:1 8465:1 9457:1 10069:1 10567:1 11202:1 12606:1 17239:1 17408:1 17426:1 19477:1 
-0.1049235843589059 4305:1 5314:1 5558:1 8003:1 8419:1 9384:1 11580:1 11796:1 11881:1 12959:1 16921:1 17295:1 17354:1 17607:1 17973:1 18015:1 18855:1 19195:1 19477:1 19487:1 
-0.6092755890676079 474:1 1398:1 4297:1 8419:1 8612:1 11132:1 11531:1 11798:1 11918:1 15434:1 17350:1 17607:1 
-0.1854732900598033 1487:1 4999:1 6923:1 7633:1 7868:1 8302:1 8419:1 8465:1 8612:1 11096:1 11202:1 11426:1 11731:1 12611:1 14807:1 16453:1 17354:1 17470:1 18401:1 
-0.1141391118693422 2355:1 2530:1 3301:1 5456:1 7384:1 11202:1 16956:1 18725:1 19476:1 19477:1 
-0.4469107565847334 2277:1 4722:1 5652:1 8302:1 8612:1 9415:1 17354:1 17682:1 18401:1 
-1.297242125383647 2442:1 5899:1 7758:1 8372:1 8419:1 10188:1 11202:1 15896:1 17034:1 18449:1 
-0.1410450935310122 451:1 592:1 1299:1 5193:1 6899:1 6924:1 9158:1 11202:1 12012:1 14162:1 14858:1 15043:1 17382:1 
-0.2581657807209461 4406:1 7299:1 8090:1 
-0.6993561778607149 6184:1 7191:1 7795:1 7892:1 8419:1 8612:1 11401:1 17168:1 19209:1 
-0.3257147968204109 427:1 3234:1 8998:1 10586:1 10918:1 11055:1 17354:1 
-0.1042400981140718 92:1 494:1 592:1 5658:1 5817:1 6301:1 6691:1 7868:1 8419:1 8612:1 9263:1 11058:1 17406:1 19355:1 
-0.1242812578320276 1398:1 9901:1 11187:1 17024:1 17155:1 17426:1 19057:1 
-0.4980192242538103 2330:1 6338:1 6469:1 7868:1 8419:1 8612:1 9115:1 11202:1 11469:1 11881:1 12392:1 17408:1 18890:1 19350:1 
-0.05214279296589056 1372:1 1801:1 2426:1 7107:1 8612:1 10567:1 11460:1 11580:1 11796:1 13704:1 15337:1 17354:1 17498:1 18401:1 19076:1 19093:1 
-0.05370873473268636 261:1 511:1 7891:1 8079:1 8419:1 9365:1 11334:1 16842:1 17173:1 17633:1 19477:1 
-0.3409604103977455 0:1 2456:1 3734:1 3773:1 5016:1 8302:1 9115:1 10058:1 12012:1 17081:1 17607:1 
-0.1912929492099801 0:1 809:1 1499:1 1616:1 4120:1 6796:1 6873:1 6977:1 7631:1 8419:1 8612:1 11202:1 11731:1 17426:1 18746:1 19477:1 
-0.01583374591011717 451:1 679:1 1004:1 2733:1 2734:1 3494:1 7242:1 7328:1 8419:1 10984:1 11561:1 11731:1 11963:1 17350:1 17354:1 17376:1 18556:1 19026:1 19233:1 
-0.282542706419599 513:1 1351:1 3175:1 5392:1 8419:1 11469:1 11531:1 11732:1 19487:1 
-0.5910674246665291 1398:1 2330:1 5359:1 5563:1 6956:1 7868:1 8078:1 8419:1 8612:1 9115:1 10758:1 15434:1 17426:1 17607:1 17668:1 
-0.1872378454072395 2806:1 7831:1 8998:1 9987:1 11327:1 11561:1 11731:1 11963:1 12209:1 13848:1 17607:1 18955:1 
-1.125256768154741 592:1 1372:1 3826:1 4722:1 5749:1 7185:1 8302:1 8998:1 9115:1 11796:1 14731:1 15502:1 17354:1 18401:1 19477:1 
-0.0635003070402797 0:1 333:1 592:1 1958:1 2015:1 2274:1 2494:1 4168:1 7679:1 8419:1 8612:1 11096:1 11731:1 11732:1 13161:1 15446:1 17607:1 19477:1 19487:1 
-0.07778337622127325 0:1 41:1 2330:1 3833:1 4860:1 6240:1 7703:1 7872:1 8281:1 8302:1 8416:1 10114:1 10572:1 11810:1 13813:1 15193:1 17081:1 17350:1 17408:1 17426:1 17485:1 17607:1 18955:1 19477:1 
-0.2320380220767014 1292:1 1758:1 2735:1 3301:1 6157:1 8419:1 8612:1 11963:1 15764:1 17354:1 17360:1 17408:1 17595:1 17607:1 19076:1 19455:1 19477:1 
-0.4507333771420335 809:1 2442:1 6651:1 7751:1 8134:1 8419:1 11561:1 11796:1 12141:1 14472:1 17034:1 17376:1 17426:1 
-0.2908108218324791 0:1 1398:1 6977:1 8419:1 8612:1 9100:1 11731:1 13225:1 13869:1 14612:1 15434:1 17426:1 19155:1 
-0.08315735735678918 1131:1 3034:1 4297:1 9095:1 9365:1 10767:1 13813:1 15085:1 15746:1 15896:1 17650:1 19076:1 19477:1 
-0.1028198644577382 4722:1 8419:1 9115:1 11317:1 12648:1 14586:1 15896:1 16398:1 17350:1 17408:1 17607:1 18890:1 19155:1 
-0.1904561194423129 1398:1 4256:1 4874:1 7283:1 8419:1 8594:1 8612:1 11881:1 15434:1 16188:1 17350:1 17354:1 18890:1 
-0.1090140606996838 809:1 1225:1 1474:1 6708:1 7301:1 8302:1 9161:1 10873:1 11731:1 11796:1 11967:1 12403:1 14119:1 15896:1 17426:1 18955:1 19477:1 
-0.5285024881915696 999:1 2348:1 2442:1 7352:1 11327:1 11966:1 12918:1 13813:1 14151:1 15896:1 15980:1 17426:1 17607:1 18955:1 
-0.2463181429636216 451:1 2471:1 3638:1 5909:1 6954:1 8419:1 10410:1 11202:1 11967:1 15085:1 15896:1 16569:1 17081:1 17354:1 17551:1 18955:1 
-0.2474946133759319 0:1 592:1 7301:1 8302:1 9095:1 9365:1 9547:1 11731:1 11798:1 11967:1 14097:1 14683:1 15980:1 17426:1 17441:1 18077:1 18854:1 19001:1 19477:1 
-0.1309165448722313 2901:1 3151:1 4486:1 5224:1 5456:1 6861:1 10301:1 11207:1 11580:1 11732:1 14587:1 15980:1 
-0.1038517725763608 6157:1 7654:1 8003:1 8419:1 9663:1 9865:1 11731:1 11732:1 11798:1 13749:1 14772:1 15204:1 17354:1 19487:1 
-0.2273578040834495 0:1 592:1 856:1 1175:1 1717:1 1914:1 1999:1 2426:1 6693:1 7891:1 8003:1 8419:1 10188:1 10567:1 11132:1 11967:1 13067:1 14305:1 17607:1 17668:1 17903:1 19032:1 
-0.1165614321285979 809:1 1887:1 3925:1 5033:1 5278:1 8112:1 9115:1 9331:1 11561:1 11963:1 16016:1 16026:1 17480:1 17607:1 18955:1 19258:1 
-0.01067426878625028 0:1 999:1 1022:1 1263:1 1961:1 5040:1 5166:1 6796:1 8612:1 9115:1 9365:1 10271:1 11202:1 11535:1 11731:1 13719:1 14664:1 15930:1 16375:1 17354:1 19258:1 19367:1 
-0.2214307452594492 0:1 1175:1 3833:1 7301:1 7653:1 8203:1 8419:1 9365:1 13420:1 17350:1 17607:1 18401:1 18857:1 19116:1 19258:1 
-0.04644405627653131 2006:1 6728:1 8612:1 9504:1 10567:1 11034:1 12771:1 17239:1 17354:1 17426:1 19034:1 19490:1 
-0.06726037600774522 6708:1 8419:1 9365:1 9919:1 11202:1 15912:1 17310:1 17408:1 18258:1 
-0.176561139963104 451:1 2629:1 5598:1 8419:1 8952:1 9095:1 9115:1 11058:1 11237:1 11731:1 17354:1 17408:1 
-0.01806342252003927 592:1 3563:1 4342:1 7891:1 8209:1 10567:1 11731:1 13382:1 14847:1 17354:1 17376:1 18401:1 19258:1 
-0.329043688430985 511:1 2442:1 3882:1 4999:1 5017:1 5166:1 8419:1 8612:1 9130:1 9689:1 11202:1 15930:1 16388:1 17034:1 17239:1 17551:1 17607:1 18401:1 18629:1 19076:1 
-0.3682980084999578 513:1 592:1 3204:1 5883:1 6708:1 7107:1 7892:1 8078:1 8419:1 9365:1 11798:1 12308:1 15985:1 16735:1 17354:1 
-0.005232676651833223 451:1 900:1 1194:1 2426:1 5480:1 6751:1 6756:1 8302:1 8465:1 8612:1 9115:1 11517:1 11731:1 11881:1 11967:1 16001:1 16106:1 17607:1 18890:1 19322:1 19477:1 19487:1 
-0.03928311035885853 592:1 1471:1 7451:1 8612:1 9130:1 10088:1 11531:1 11967:1 15338:1 15426:1 17349:1 17354:1 17545:1 19477:1 
-0.659867200922973 2471:1 2803:1 6336:1 7758:1 8419:1 8465:1 9130:1 9365:1 9547:1 9824:1 11202:1 11531:1 17607:1 19477:1 
-0.02737714248098835 567:1 809:1 8612:1 12332:1 12811:1 16393:1 18058:1 18955:1 
-0.1161951134710356 0:1 513:1 1292:1 7868:1 8419:1 8612:1 11580:1 12934:1 12960:1 15097:1 15423:1 17350:1 17426:1 18890:1 
-0.07400249455252832 0:1 451:1 490:1 1475:1 3107:1 3449:1 6708:1 8612:1 9115:1 9901:1 9926:1 10802:1 11469:1 11580:1 11802:1 11836:1 11995:1 13513:1 13848:1 14731:1 16393:1 17350:1 17354:1 18401:1 18809:1 19034:1 
-0.08909258483061172 1000:1 1201:1 2653:1 3853:1 7891:1 8419:1 9115:1 9365:1 10567:1 11967:1 17350:1 17544:1 18890:1 19076:1 
-0.1967990940421193 1795:1 5276:1 5906:1 6157:1 7832:1 9263:1 15337:1 17354:1 18088:1 
-0.1575222296459886 5525:1 8612:1 9766:1 11798:1 12158:1 15980:1 17354:1 17360:1 
-0.2215005745982889 809:1 8896:1 11068:1 11202:1 11802:1 12018:1 15768:1 
-0.1594325558076406 0:1 4999:1 7185:1 8302:1 11580:1 11796:1 13096:1 17307:1 19477:1 
-0.04026326283276606 0:1 464:1 592:1 1795:1 2430:1 7787:1 7868:1 9365:1 9496:1 9901:1 11541:1 11731:1 11967:1 12154:1 13500:1 15072:1 15995:1 17354:1 17607:1 18401:1 18827:1 19477:1 19487:1 
-0.3403941652753117 1795:1 5017:1 7109:1 9263:1 10271:1 10567:1 11531:1 11798:1 
-0.02707357426847854 0:1 1433:1 1464:1 3845:1 5059:1 8207:1 8419:1 9115:1 14731:1 17034:1 17354:1 19093:1 
-0.03770964538911211 0:1 567:1 592:1 789:1 1693:1 5664:1 7107:1 9115:1 9365:1 10567:1 14731:1 16355:1 19258:1 
-0.040305616362912 0:1 592:1 1175:1 5129:1 7107:1 7997:1 8322:1 8612:1 11580:1 11802:1 14847:1 16490:1 16593:1 17354:1 17366:1 18401:1 18786:1 19477:1 
-0.1652483951479042 1696:1 2325:1 4326:1 5236:1 7384:1 9365:1 11963:1 17603:1 18966:1 
-0.1024558084661807 41:1 592:1 1407:1 2577:1 9249:1 10567:1 11649:1 11798:1 14151:1 15115:1 17034:1 17239:1 17350:1 17354:1 17607:1 19357:1 19477:1 
-0.3384249217335605 0:1 451:1 492:1 592:1 1175:1 1433:1 1819:1 2330:1 2553:1 3294:1 5066:1 5140:1 5276:1 6347:1 8419:1 8612:1 10567:1 11096:1 11202:1 12231:1 12596:1 15980:1 16624:1 17034:1 17366:1 18401:1 18901:1 
-0.05978241361874152 5033:1 6169:1 6985:1 7872:1 8281:1 8460:1 9115:1 11881:1 12760:1 13015:1 17350:1 17354:1 17607:1 19034:1 19062:1 19093:1 19347:1 19477:1 19491:1 
-0.1268030715440443 0:1 809:1 1201:1 4372:1 7352:1 14857:1 16734:1 
-0.5152232245403012 3541:1 3833:1 4713:1 7758:1 8465:1 8612:1 11963:1 15276:1 17389:1 19355:1 
-0.9278017884225046 592:1 1271:1 6505:1 9116:1 13776:1 15337:1 17354:1 17366:1 
-3.435420939541378 4713:1 5472:1 6336:1 7679:1 8419:1 8612:1 9901:1 11096:1 11202:1 
-0.2359216881398993 0:1 451:1 592:1 809:1 5276:1 6248:1 8003:1 8419:1 10188:1 13169:1 13395:1 14731:1 16869:1 17376:1 17389:1 
-0.02531826728693051 342:1 451:1 4092:1 6935:1 7032:1 8427:1 8849:1 11202:1 13623:1 15337:1 17354:1 
-1.774480892683073 592:1 1398:1 1619:1 7348:1 8003:1 8419:1 8849:1 9365:1 10188:1 10567:1 12480:1 14877:1 17354:1 18855:1 19477:1 
-0.3221280977389822 4432:1 7333:1 7703:1 7787:1 9943:1 11202:1 11731:1 11953:1 17354:1 17607:1 18401:1 18814:1 19057:1 19301:1 
-0.006951154091635213 1433:1 4303:1 8419:1 9661:1 10833:1 11580:1 11731:1 11810:1 14869:1 17205:1 19026:1 
-0.006789785332366583 1183:1 1270:1 2146:1 4722:1 5906:1 6923:1 7917:1 8029:1 8419:1 9036:1 16855:1 17350:1 17354:1 17607:1 18890:1 19477:1 
-0.3024916965488537 1464:1 3287:1 3761:1 5906:1 6505:1 7001:1 7679:1 8419:1 17354:1 17607:1 18556:1 19081:1 
-2.119462519786623 333:1 451:1 4722:1 6708:1 6805:1 8285:1 8419:1 9115:1 14982:1 16939:1 17670:1 18890:1 
-0.05716727743638996 592:1 1398:1 3287:1 6146:1 8419:1 9115:1 9901:1 10443:1 10758:1 11202:1 15792:1 15857:1 15991:1 17408:1 18995:1 
-0.05016019184236789 8419:1 8863:1 11731:1 11732:1 12578:1 17081:1 17354:1 17682:1 17878:1 18748:1 19477:1 
-0.4062023899600862 342:1 1669:1 5161:1 8419:1 8998:1 11204:1 
-0.1049202457244822 299:1 513:1 8419:1 8612:1 9095:1 9837:1 10276:1 10567:1 10980:1 11810:1 16495:1 17350:1 17354:1 17405:1 17426:1 17607:1 17891:1 18855:1 
-0.4499669500669778 592:1 900:1 2442:1 2701:1 5899:1 8419:1 9547:1 11768:1 14994:1 17034:1 17426:1 18065:1 18401:1 18955:1 19195:1 
-0.02774443434811735 259:1 660:1 2949:1 5071:1 9115:1 11028:1 11469:1 11650:1 12012:1 17607:1 18762:1 18785:1 
-0.202499870096327 592:1 924:1 1208:1 2426:1 5257:1 8157:1 8419:1 9115:1 9432:1 11731:1 11967:1 13417:1 13501:1 15896:1 15899:1 18104:1 18890:1 19034:1 19045:1 19076:1 19081:1 19477:1 19487:1 
-0.1474986296306209 0:1 411:1 999:1 6481:1 6490:1 6923:1 7185:1 7333:1 8286:1 11732:1 11963:1 14459:1 14807:1 17350:1 17354:1 17607:1 17903:1 18018:1 18955:1 19034:1 
-0.1252296634364634 567:1 4999:1 7739:1 8419:1 10188:1 11531:1 11731:1 12010:1 12209:1 17607:1 18191:1 19057:1 19477:1 
-0.4226326236840333 0:1 4722:1 7710:1 8142:1 8998:1 9095:1 9115:1 10058:1 16453:1 17426:1 18015:1 18997:1 19076:1 
-0.4083325946606769 2442:1 7758:1 7891:1 9413:1 10567:1 11202:1 17034:1 17350:1 17527:1 17607:1 18401:1 18804:1 19111:1 19179:1 19258:1 
-0.4499773282601128 333:1 689:1 2060:1 7301:1 7348:1 8419:1 9365:1 10188:1 11228:1 14618:1 18401:1 18955:1 19487:1 
-0.06113863025558293 0:1 592:1 3462:1 7679:1 8054:1 10567:1 10755:1 11448:1 11796:1 12826:1 14958:1 15337:1 16453:1 17342:1 17354:1 
-0.1466408099762618 682:1 1433:1 1464:1 1954:1 3292:1 3704:1 4999:1 5032:1 9115:1 9365:1 9901:1 10417:1 11354:1 11561:1 11580:1 11731:1 13848:1 14731:1 15241:1 15580:1 15896:1 17904:1 18444:1 18556:1 18955:1 19034:1 
-0.1364454501578636 0:1 567:1 1795:1 6708:1 8419:1 8988:1 9263:1 9365:1 11344:1 
-1.444775497926993 342:1 900:1 4282:1 7654:1 10058:1 11531:1 13813:1 19116:1 19477:1 
-1.031631696721042 5059:1 7185:1 7236:1 7801:1 8419:1 11731:1 12750:1 15097:1 15714:1 15980:1 17034:1 17354:1 17607:1 18556:1 19258:1 19477:1 
-0.4729827459916195 451:1 999:1 5314:1 5838:1 7301:1 7333:1 8419:1 8465:1 9403:1 10188:1 10567:1 12471:1 13669:1 13813:1 17354:1 17579:1 17607:1 17661:1 17668:1 18946:1 19477:1 
-0.5641691201807797 460:1 809:1 3172:1 6208:1 7672:1 8082:1 11202:1 13848:1 17387:1 
-0.3082737190375938 2330:1 5389:1 7694:1 8419:1 10188:1 11580:1 13586:1 14987:1 16453:1 17350:1 
-1.638910873608286 0:1 5066:1 7868:1 8003:1 11967:1 12180:1 14731:1 17376:1 19057:1 19477:1 
-0.1535064980838106 342:1 1201:1 4372:1 9130:1 9875:1 11731:1 17350:1 17551:1 18992:1 18997:1 
-0.2262686976493944 1445:1 1475:1 1499:1 3353:1 5082:1 6924:1 7891:1 8099:1 8612:1 9410:1 9439:1 9766:1 10567:1 11202:1 16480:1 17366:1 17607:1 18104:1 19032:1 19324:1 
-0.3150927561375239 1433:1 2439:1 4800:1 5129:1 6157:1 7301:1 8419:1 8612:1 15714:1 17354:1 17607:1 18857:1 
-0.9307300292013385 1240:1 2330:1 4169:1 6923:1 7679:1 7891:1 8419:1 9115:1 11798:1 14146:1 18890:1 19057:1 
-0.3970912070776499 2442:1 2821:1 4051:1 4401:1 4999:1 6946:1 9547:1 13636:1 19477:1 
-0.4757725872343487 1433:1 4709:1 7188:1 7279:1 8419:1 9095:1 9115:1 9365:1 13223:1 18855:1 19490:1 
-0.4158572754732649 1398:1 2868:1 4194:1 5000:1 6276:1 8419:1 10188:1 11757:1 13789:1 16037:1 17342:1 17354:1 
-0.2464432299093832 1596:1 2173:1 2354:1 3833:1 8029:1 8419:1 8730:1 10203:1 13757:1 14863:1 17239:1 17350:1 17354:1 19034:1 19477:1 
-0.02787489610049008 592:1 1398:1 2442:1 4115:1 5999:1 8003:1 8612:1 10278:1 11580:1 16495:1 19477:1 
-0.8994691193150139 0:1 2471:1 8612:1 9410:1 9901:1 10023:1 14097:1 17086:1 17350:1 18401:1 19477:1 
-0.07836396261402705 4785:1 7737:1 8612:1 8956:1 9263:1 11028:1 13634:1 15094:1 17342:1 17354:1 19034:1 19477:1 
-0.02391825236152821 0:1 1229:1 1270:1 1503:1 4999:1 6708:1 7352:1 7489:1 9826:1 14881:1 17348:1 17408:1 18024:1 19057:1 19477:1 
-0.1696423811193115 17:1 900:1 5186:1 6505:1 7997:1 9104:1 9137:1 9922:1 15097:1 17354:1 17426:1 17551:1 
-0.1292938179110648 923:1 1423:1 2442:1 4999:1 5140:1 7917:1 8302:1 8419:1 8465:1 9115:1 10567:1 11349:1 17056:1 17354:1 
-1.21873372151283 451:1 1954:1 2471:1 4999:1 6120:1 6157:1 7301:1 7868:1 8157:1 8419:1 9115:1 9365:1 9901:1 11155:1 11202:1 12012:1 12158:1 14731:1 16350:1 17389:1 17426:1 19477:1 
-0.4827069977149481 592:1 3129:1 5140:1 6456:1 8419:1 8849:1 10867:1 11833:1 11967:1 12238:1 17354:1 18401:1 18820:1 19477:1 
-0.2060742219101437 809:1 1442:1 7774:1 11035:1 14061:1 16796:1 17387:1 17668:1 
-0.2549638336755917 809:1 4882:1 8612:1 10366:1 17354:1 17376:1 19155:1 
-1.307190070125033 333:1 592:1 2426:1 7758:1 7891:1 8134:1 8419:1 8849:1 10217:1 10567:1 13042:1 13097:1 17034:1 17350:1 18444:1 18901:1 
-0.4252463992464133 809:1 2065:1 10379:1 14731:1 17350:1 17376:1 19155:1 
-0.9169584026713677 5059:1 5480:1 8419:1 9115:1 9901:1 11531:1 12158:1 13813:1 14731:1 15085:1 15896:1 17034:1 18420:1 18969:1 19034:1 19155:1 19477:1 
-1.130250325496678 6897:1 8419:1 10867:1 18723:1 19333:1 
-0.06706561856981244 1398:1 3175:1 8409:1 9547:1 10301:1 11202:1 14731:1 19477:1 
-0.196935966044304 539:1 567:1 1271:1 1398:1 3591:1 8419:1 10359:1 14731:1 15205:1 16453:1 17607:1 17668:1 18556:1 19277:1 
-0.00790986437124201 0:1 592:1 772:1 1045:1 8419:1 12254:1 17350:1 17426:1 17607:1 18027:1 18127:1 18890:1 
-2.511946138874297 451:1 1076:1 5059:1 5721:1 6708:1 7868:1 8141:1 8419:1 17034:1 17387:1 
-0.2826370626164342 679:1 3908:1 4999:1 7907:1 11209:1 11802:1 13646:1 14061:1 14442:1 17342:1 
-0.2322024847925414 1847:1 4999:1 6322:1 7288:1 7868:1 8419:1 11202:1 12323:1 16812:1 17607:1 19155:1 
-0.1379432259855728 1208:1 3292:1 5094:1 5906:1 7868:1 8419:1 11058:1 11731:1 11796:1 15714:1 17350:1 17354:1 18890:1 
-0.05839101135850858 0:1 1587:1 7333:1 7737:1 8218:1 9095:1 10872:1 11426:1 11731:1 15061:1 15773:1 19487:1 
-0.2776998286918407 1525:1 2657:1 5072:1 8143:1 11327:1 16495:1 17350:1 17607:1 18444:1 18955:1 
-0.06306957745246256 342:1 592:1 2426:1 2718:1 7891:1 8612:1 9365:1 9766:1 16520:1 17354:1 
-1.117334850071497 342:1 474:1 11383:1 11580:1 14731:1 15337:1 17607:1 18015:1 
-0.3394665259762827 0:1 1475:1 5389:1 6938:1 7352:1 8078:1 9115:1 9365:1 9901:1 14731:1 15428:1 15815:1 15896:1 17155:1 17239:1 17366:1 17607:1 
-0.5019690979187522 0:1 427:1 1834:1 2467:1 6977:1 6985:1 9115:1 9972:1 10001:1 11731:1 17376:1 18890:1 
-0.5860780909600566 0:1 5389:1 5749:1 7352:1 8419:1 9181:1 11327:1 11531:1 11561:1 11631:1 11731:1 13864:1 14472:1 17426:1 17607:1 
-0.1745706553685066 999:1 3833:1 6157:1 7770:1 11202:1 11458:1 11469:1 11731:1 11798:1 11967:1 12735:1 12801:1 15085:1 15502:1 17072:1 17350:1 17354:1 18890:1 
-0.09532430514101674 451:1 2442:1 4198:1 6708:1 6924:1 7312:1 8419:1 8612:1 9130:1 11202:1 11731:1 11757:1 12193:1 14731:1 16029:1 17034:1 17354:1 17387:1 17485:1 17607:1 18401:1 18804:1 19000:1 
-0.4397842410454851 1968:1 8291:1 9983:1 10359:1 15896:1 17551:1 
-0.02664702874981105 0:1 592:1 900:1 4584:1 8250:1 8419:1 9115:1 10898:1 11291:1 11731:1 13552:1 15394:1 17716:1 18112:1 19258:1 19355:1 
-0.3455035020854454 1616:1 1821:1 5059:1 5899:1 8419:1 9115:1 9365:1 9660:1 9814:1 11426:1 11798:1 14146:1 14731:1 16123:1 17034:1 19299:1 
-0.02567298610826235 0:1 1145:1 2498:1 4308:1 8419:1 8612:1 10018:1 10033:1 11202:1 11531:1 11617:1 11731:1 15173:1 16869:1 
-0.7821487748239725 4999:1 5180:1 7191:1 8612:1 9410:1 9619:1 11202:1 19155:1 19477:1 
-0.5306094692683128 1366:1 1398:1 2330:1 6708:1 9115:1 9901:1 9995:1 10358:1 17354:1 
-0.009551336192179001 2772:1 7185:1 7891:1 8054:1 9901:1 10074:1 11028:1 13809:1 17354:1 18955:1 
-0.2602020693019271 0:1 333:1 342:1 1162:1 1475:1 1645:1 2442:1 3216:1 7185:1 7301:1 8419:1 9365:1 11004:1 11327:1 11796:1 11967:1 12904:1 15661:1 15896:1 17426:1 17607:1 18561:1 18955:1 
-0.0434169025090969 722:1 1445:1 3359:1 6843:1 7390:1 7654:1 7868:1 8302:1 8612:1 14731:1 17376:1 17464:1 17551:1 19034:1 19258:1 19347:1 19477:1 
-0.1406136736605403 2307:1 10247:1 13813:1 15131:1 15745:1 17354:1 17482:1 18955:1 19487:1 
-0.09329040603419154 3065:1 3743:1 5244:1 7720:1 8612:1 9115:1 9130:1 9365:1 10586:1 11531:1 13496:1 16453:1 17354:1 17607:1 17903:1 18401:1 19258:1 19331:1 
-0.8327331706287788 0:1 1619:1 1829:1 7679:1 8419:1 10058:1 13251:1 13844:1 17366:1 18401:1 19026:1 19076:1 19284:1 
-0.0005236499497096407 1112:1 1429:1 5129:1 8354:1 9968:1 10372:1 11782:1 11833:1 16001:1 17354:1 17541:1 17693:1 18955:1 19258:1 
-0.04836958832042693 365:1 6461:1 6708:1 6954:1 8419:1 9365:1 9660:1 9824:1 10567:1 11426:1 13569:1 14147:1 14943:1 15956:1 17607:1 19477:1 
-2.290908119139685 592:1 809:1 2060:1 3287:1 4878:1 4999:1 7348:1 8465:1 11202:1 12012:1 15896:1 16453:1 17426:1 18401:1 18955:1 19477:1 
-0.08963397525590407 41:1 697:1 1499:1 1801:1 2241:1 3774:1 5059:1 6478:1 7787:1 8078:1 8099:1 8302:1 8316:1 8419:1 9115:1 9547:1 10837:1 11402:1 11731:1 11798:1 17034:1 17096:1 17354:1 18890:1 18955:1 19034:1 
-2.897432005834395 0:1 999:1 1795:1 6208:1 7333:1 8078:1 8419:1 8612:1 9263:1 10114:1 10188:1 10271:1 10567:1 11798:1 17551:1 17607:1 19258:1 
-0.2142533388718887 2572:1 4722:1 8355:1 8612:1 11202:1 12640:1 13588:1 19155:1 19477:1 
-0.1200626089830351 2597:1 2924:1 4999:1 5016:1 6461:1 7997:1 8612:1 9115:1 9365:1 9432:1 9510:1 10966:1 11096:1 11768:1 14731:1 14880:1 15337:1 15896:1 16442:1 17607:1 17975:1 18890:1 19057:1 19093:1 
-0.5399406359807466 9365:1 9824:1 10198:1 10567:1 14459:1 17034:1 17354:1 18077:1 18898:1 19155:1 19357:1 
-0.1068756194951624 1484:1 2442:1 7301:1 7917:1 8419:1 9987:1 10567:1 11202:1 11531:1 11967:1 17607:1 17661:1 
-1.530429512436198 592:1 2442:1 6018:1 6958:1 7185:1 7489:1 7737:1 8134:1 9115:1 9365:1 10061:1 11517:1 11796:1 14731:1 15085:1 17354:1 17360:1 17389:1 18401:1 19129:1 
-0.2358001347981218 511:1 2442:1 8419:1 9410:1 10307:1 10567:1 11998:1 15337:1 17034:1 17607:1 18401:1 
-0.4074374625352801 8108:1 8419:1 11768:1 12308:1 13334:1 16495:1 16594:1 17607:1 19477:1 
-1.0030858057309 2006:1 4999:1 7109:1 8419:1 10567:1 16518:1 17354:1 17719:1 18946:1 19249:1 
-0.3392136588368362 2862:1 6708:1 7758:1 8134:1 8998:1 9115:1 10567:1 11202:1 13171:1 16188:1 17243:1 17607:1 18401:1 19034:1 19477:1 
-0.2956104884061718 5276:1 6134:1 7384:1 8419:1 8612:1 9655:1 11202:1 17408:1 
-0.1385626026664775 999:1 2589:1 5617:1 5909:1 17573:1 19116:1 19477:1 
-0.2024640050221252 1587:1 5016:1 7301:1 11881:1 13971:1 18641:1 19116:1 19220:1 19258:1 
-0.3438713121459562 1591:1 2442:1 3049:1 7241:1 7892:1 8078:1 8419:1 8612:1 14925:1 17607:1 17975:1 19034:1 19076:1 
-0.139465797701422 490:1 592:1 1307:1 2296:1 4455:1 7868:1 7891:1 8419:1 9130:1 11509:1 15050:1 17470:1 18401:1 
-0.4495684125486368 592:1 3093:1 3287:1 7010:1 7997:1 8003:1 8302:1 8419:1 9095:1 9115:1 9959:1 10567:1 17239:1 17366:1 17408:1 17607:1 18855:1 19477:1 
-0.2476082158255772 449:1 999:1 6954:1 7868:1 8419:1 9410:1 9751:1 11731:1 11798:1 14619:1 17354:1 17426:1 17607:1 17768:1 19026:1 19443:1 19487:1 
-0.1739717155473663 592:1 809:1 2516:1 5072:1 5276:1 8053:1 8302:1 8419:1 10586:1 10897:1 16244:1 19477:1 
-0.6264090324248364 592:1 999:1 1591:1 3175:1 5059:1 7248:1 7868:1 8419:1 10188:1 11084:1 15616:1 17034:1 17607:1 17650:1 19324:1 
-3.227879077680345 8612:1 9095:1 10811:1 11096:1 11202:1 11531:1 11580:1 16184:1 16453:1 17354:1 
-0.2159098344783394 0:1 592:1 3060:1 6469:1 7241:1 7737:1 8419:1 9263:1 10013:1 10567:1 17123:1 17607:1 17627:1 18855:1 19477:1 19487:1 
-0.3730923524601793 0:1 567:1 592:1 999:1 1696:1 2326:1 5775:1 8321:1 8419:1 9115:1 9901:1 11211:1 11731:1 11798:1 16340:1 17226:1 17376:1 18890:1 19006:1 19116:1 
-0.1519917736373346 592:1 4198:1 6449:1 7260:1 7333:1 11202:1 11963:1 11967:1 13731:1 14068:1 14983:1 15423:1 17607:1 18955:1 19477:1 
-0.1297202114019524 3287:1 6708:1 7063:1 7542:1 9365:1 11796:1 12012:1 13048:1 13813:1 16501:1 17354:1 18955:1 19442:1 
-0.3202007058455917 0:1 2173:1 6338:1 7597:1 7790:1 7868:1 8419:1 8612:1 9095:1 11754:1 12890:1 15368:1 16971:1 17350:1 17354:1 17426:1 18969:1 19487:1 
-0.0505484702282489 0:1 5129:1 7891:1 8302:1 9115:1 10567:1 11525:1 11796:1 12789:1 17239:1 19032:1 19258:1 19477:1 
-0.167473485159979 1201:1 1398:1 2028:1 2442:1 2449:1 7775:1 8419:1 9115:1 10758:1 17034:1 17408:1 17426:1 
-0.5284561421483549 0:1 6461:1 7194:1 7832:1 7891:1 8078:1 8419:1 8465:1 9995:1 10567:1 11810:1 12601:1 15896:1 17661:1 18401:1 19026:1 
-0.1117440133280227 0:1 839:1 999:1 1211:1 3024:1 6347:1 9365:1 11732:1 11789:1 13393:1 19292:1 
-0.4165807179124428 0:1 2442:1 2982:1 5154:1 8419:1 9115:1 9365:1 9901:1 11327:1 11731:1 11953:1 12405:1 12760:1 14731:1 16495:1 16734:1 17034:1 17084:1 17198:1 17354:1 17572:1 17607:1 19477:1 
-0.4206525947534742 0:1 592:1 2769:1 5033:1 6458:1 6708:1 7972:1 11469:1 13579:1 13813:1 15093:1 17389:1 17749:1 18419:1 18809:1 
-0.02633541437988899 6923:1 7868:1 7872:1 8088:1 8419:1 9792:1 10188:1 11202:1 11754:1 13252:1 16233:1 16353:1 17607:1 17668:1 
-0.7168210535445044 756:1 999:1 1587:1 7241:1 7892:1 8099:1 9115:1 9751:1 9995:1 10069:1 17227:1 17426:1 17441:1 18890:1 18946:1 19268:1 19477:1 
-0.1061228075844709 0:1 3478:1 8612:1 9115:1 9901:1 18890:1 19521:1 
-0.4675570750810268 592:1 3301:1 6708:1 8419:1 8612:1 8998:1 10188:1 11202:1 11967:1 12709:1 13571:1 15823:1 16037:1 17607:1 17975:1 19324:1 19477:1 19487:1 
-0.03873658236358459 41:1 3147:1 3867:1 6923:1 7035:1 7891:1 8692:1 11731:1 14731:1 16222:1 
-0.08043494585302717 1355:1 8269:1 8419:1 9365:1 9689:1 11202:1 
-0.1335602728718892 2354:1 3235:1 5129:1 7333:1 8419:1 11028:1 11796:1 17039:1 17354:1 17850:1 18890:1 19093:1 19477:1 
-0.5943996652646856 1475:1 6805:1 6954:1 7770:1 8419:1 8439:1 9115:1 9496:1 9901:1 10188:1 11580:1 11967:1 17555:1 17607:1 17670:1 18444:1 19477:1 
-0.5204559265481656 900:1 3982:1 4607:1 6142:1 7868:1 8029:1 8419:1 11202:1 11796:1 16056:1 16453:1 17426:1 19487:1 
-0.3180234140010145 49:1 3175:1 7565:1 7807:1 10276:1 17354:1 
-1.070334886665983 999:1 1251:1 1457:1 7679:1 9115:1 9365:1 9753:1 9824:1 11202:1 14731:1 16463:1 17350:1 
-0.33849649115873 4194:1 5188:1 6336:1 8419:1 9901:1 11202:1 11494:1 11731:1 14982:1 15762:1 17354:1 17362:1 17607:1 18946:1 
-0.08919333299877516 5918:1 6964:1 9095:1 10539:1 17354:1 17376:1 19057:1 
-0.1951973196157686 0:1 592:1 5913:1 7185:1 7868:1 9365:1 11796:1 12104:1 13247:1 14807:1 15434:1 17354:1 17468:1 18955:1 
-0.3459893241381864 592:1 924:1 1372:1 2426:1 5208:1 6708:1 7891:1 8099:1 8612:1 9670:1 9766:1 10838:1 11580:1 11967:1 13972:1 17354:1 17670:1 19045:1 
-0.125289231690442 0:1 3944:1 4724:1 4999:1 8419:1 9115:1 9365:1 9547:1 9972:1 10404:1 11731:1 14847:1 15633:1 15896:1 17354:1 17376:1 17607:1 18890:1 19057:1 19258:1 
